national 0.08631321 -0.13007914 0.12902707 0.090512566 0.08123963 0.10318454 0.096443176 -0.15066151 -0.15772925 -0.076677114 -0.07806134 0.11391195 -0.11548872 0.074914 -0.07616864 -0.11796862 -0.17783178 0.14810129 0.11257373 0.12000073 0.10416858 -0.15582193 0.123679355 0.12974484 -0.1100807 -0.0980899 -0.10010922 0.13412866 -0.1338706 -0.08556172
institutes 0.048107605 -0.15574029 0.13543688 0.18271522 0.14764465 0.10469218 0.12714764 -0.10002822 -0.14888401 -0.1562553 -0.14557263 0.16569366 0.087016046 0.10867119 -0.16557883 -0.091511704 -0.12856886 0.119596675 0.09326295 0.15376535 0.1040127 -0.15825307 0.15724821 -0.0049459497 -0.076297894 -0.08955266 0.03364121 0.05662824 -0.1394673 -0.112552725
of 0.1835252 -0.17622583 0.15559663 0.09770144 0.12628877 0.16519779 0.14244528 -0.086038195 -0.15264869 -0.13395095 -0.1788076 0.119692914 -0.079120815 0.12865013 -0.103601776 -0.09658175 -0.105376825 0.08916992 0.10494425 0.0951754 0.15275535 -0.12527253 0.1783053 0.11442819 -0.123157054 -0.115988165 -0.15244529 0.13253956 -0.15981925 -0.1458829
health 0.10439932 -0.13937205 0.11050177 0.14303601 0.10562457 0.0924803 0.16085061 -0.15106368 -0.09594122 -0.10083067 -0.1302891 0.050176032 -0.17946368 0.12047755 -0.10805561 -0.17736396 -0.15362586 0.18503822 0.13953204 0.13514544 0.13554823 -0.16052587 0.1275296 0.14168164 -0.16723052 -0.10143058 -0.074844465 0.16619425 -0.17645526 -0.1591421
nih 0.14714852 -0.1310766 0.14289205 0.1028253 -0.11628785 0.14430478 0.1383572 -0.15588555 -0.14877915 -0.1554334 -0.15580401 0.16590448 -0.13851202 0.17181085 -0.15416768 -0.13837215 -0.16118716 0.15253326 0.14476822 0.10584475 0.15909007 -0.11710479 0.16934893 0.098987475 -0.1300849 -0.11464754 -0.09579709 0.0868379 -0.15694909 -0.18018818
turning 0.09950524 -0.11754614 0.0956624 0.09010967 0.07804432 0.12082837 0.09834902 -0.0879945 -0.092341244 -0.09771602 -0.08957043 -0.042639513 -0.16570233 0.09550281 -0.10597019 -0.13384455 -0.13661495 0.09945363 0.089512125 0.074591294 0.072670415 -0.112297185 0.14074932 0.04584568 -0.081273146 -0.17181373 0.055504378 0.06749206 -0.09699232 -0.093956634
discovery 0.09551495 -0.16910349 0.13599385 0.10281801 0.121089555 0.09234248 0.093379594 -0.07861266 -0.10903635 -0.09258564 -0.07312422 -0.13086116 -0.081490315 0.09330934 -0.15419298 -0.080606565 -0.11805689 0.076237746 0.078499295 0.106347345 0.07005744 -0.09282982 0.13932997 0.03797121 -0.108436674 -0.08433058 0.035958502 0.0986043 -0.072058216 -0.13404268
into 0.12082946 -0.15253052 0.10608994 0.113042094 0.13278697 0.06798171 0.14321041 -0.084455706 -0.10778653 -0.13149646 -0.11029335 0.057740573 -0.1202726 0.08912668 -0.11808629 -0.114914015 -0.12593587 0.09216748 0.053368606 0.10614964 0.061455492 -0.10566782 0.109664 0.07650936 -0.1267551 -0.05207944 0.11201526 -0.08466239 -0.123718254 -0.10487608
skip 0.076439105 -0.09468538 0.12038014 0.09579604 0.036937162 0.0975879 0.08317332 -0.10362232 -0.09494126 -0.0984498 -0.1428541 0.027394036 -0.08892395 0.07926803 -0.07355358 -0.073532306 -0.09988675 0.085833386 0.07761782 0.09458409 0.10227553 -0.11710884 0.11825194 0.09873509 -0.049580876 -0.087349415 -0.048232518 -0.029939117 -0.06933686 -0.095227055
to 0.12817855 -0.13190536 0.15147461 0.10309947 -0.14833248 0.14215125 0.12478915 -0.10619828 -0.055915195 -0.16929983 -0.10009784 -0.06960239 -0.03837547 0.16003682 -0.13838974 -0.11937034 -0.027056077 0.17466018 0.08779617 0.09466539 0.14086448 -0.12436288 0.13781504 0.1324129 0.13407825 -0.11793545 -0.14567982 0.020154051 -0.11609491 -0.12267164
main 0.07584318 -0.052762754 0.07175025 0.05310191 -0.07754471 0.10246567 0.06735697 -0.048199367 -0.08570405 -0.09228571 -0.07577148 0.10747312 -0.06413421 0.10180973 -0.05819626 -0.1421545 -0.053651728 0.05093883 0.0636625 0.07049093 0.07428476 -0.099604405 0.07885726 0.07897383 0.01339827 -0.091654964 -0.08760678 0.024846544 -0.09097997 -0.10283492
content 0.07289908 -0.06893871 0.07553069 0.05984976 -0.06563158 0.13170318 0.069795854 -0.04025025 -0.12512977 -0.056649417 -0.13130242 0.09529088 -0.08808617 0.09764708 -0.07558261 -0.08086305 -0.05414073 0.0045515443 0.07961554 0.053600386 0.09009421 -0.0979497 0.10019765 0.12935035 -0.02440441 -0.086282186 -0.09364427 0.029461244 -0.06274804 -0.10013625
u.s. 0.044190027 -0.10436836 0.09448227 0.12654404 -0.03745678 0.090897486 0.12985711 -0.11017446 -0.15631244 -0.048312474 -0.13625488 0.1508775 -0.10971977 0.072670236 -0.105775885 -0.14442855 -0.07020689 0.102894776 0.17445344 0.11021034 0.08570105 -0.09082829 0.077754855 0.09702135 -0.09962652 -0.036744907 -0.09305732 0.0716308 -0.13446458 -0.07980878
department 0.07566098 -0.101346195 0.1414415 0.082270846 0.05232965 0.13937896 0.16478172 -0.082232006 -0.10507388 -0.11846887 -0.11650419 0.15332343 -0.14271642 0.08242007 -0.075874254 -0.15201907 -0.14897987 0.082745425 0.12805569 0.12701586 0.11880298 -0.14544648 0.089738786 0.10309983 -0.07001748 -0.052951183 -0.01287922 0.07510323 -0.10144865 -0.107819155
human 0.09867193 -0.16617155 0.09346288 0.13610856 0.019573076 0.1303542 0.13447906 -0.093832865 -0.09956226 -0.14191648 -0.120435156 0.077876024 -0.029125424 0.08772781 -0.11712084 -0.078852855 -0.13752908 0.14179198 0.07903409 0.07151298 0.08099661 -0.14327905 0.10862789 0.11861801 -0.02275341 -0.07909836 0.057983264 0.008411057 -0.10638584 -0.1482977
services 0.0927894 -0.1604626 0.101793565 0.10355487 0.048127998 0.12936683 0.0928909 -0.08733709 -0.14621371 -0.11247429 -0.14167725 0.044543706 0.0052091572 0.1415124 -0.13284892 -0.1295806 -0.11720998 0.089714624 0.11406077 0.07700893 0.11266675 -0.110735975 0.07325463 0.113237776 -0.055913668 -0.12095673 -0.04265193 0.015183892 -0.08050908 -0.10480712
search 0.091958284 -0.15698026 0.13510257 0.17163712 0.09163222 0.15096447 0.06915855 -0.107504025 -0.07744867 -0.1387149 -0.14283676 -0.05017537 -0.12117428 0.08408673 -0.14154355 -0.10089997 -0.105109416 0.08592374 0.14074798 0.09752215 0.09708263 -0.10536006 0.11819062 0.1659991 -0.037135698 -0.11405873 -0.051916547 0.11474548 -0.090662315 -0.13540298
the 0.09650302 -0.11469762 0.1466199 0.15314195 -0.088573 0.12500994 0.10479714 -0.18295981 -0.17048557 -0.15257595 -0.12479151 0.17472763 -0.020190861 0.11431815 -0.15815288 -0.09173626 -0.103178374 0.15069312 0.14439449 0.1709637 0.13686702 -0.11261003 0.113263 0.1188987 -0.17832075 -0.123739034 -0.07213382 0.13122569 -0.11377375 -0.15090097
website 0.14410502 -0.15383983 0.13657072 0.11277997 0.08076317 0.116726056 0.091818586 -0.097218595 -0.15226176 -0.13199314 -0.13913064 0.04228787 -0.0061430302 0.164735 -0.15376857 -0.12389215 -0.0888024 0.13056651 0.16844274 0.10416025 0.060771775 -0.1373115 0.12883538 0.12400791 -0.16822247 -0.1399387 -0.12810212 0.13599075 -0.073186345 -0.13629635
virtual 0.085915744 -0.12783827 0.11301878 0.119971216 0.11485077 0.13737978 0.13532762 -0.1383323 -0.15955184 -0.11830192 -0.11113547 0.079919554 -0.03533952 0.14132999 -0.087669164 -0.14861912 -0.10658321 0.13674937 0.13898063 0.09429437 0.038877197 -0.16130956 0.16229002 0.041191343 -0.09336107 -0.12489396 -0.11792017 0.10944074 -0.06885676 -0.12018667
tour 0.095979065 -0.10353043 0.12847362 0.0860446 0.17099762 0.08398339 0.15674886 -0.076930344 -0.113054395 -0.11732154 -0.09326472 0.16322501 0.040752158 0.1135063 -0.17192781 -0.11849172 -0.08494274 0.10578204 0.08311841 0.02212788 0.01614659 -0.07965693 0.16424334 0.07959672 -0.10377351 -0.1370683 -0.121343456 0.08362611 -0.030827267 -0.1428793
staff 0.061921585 -0.109595954 0.08845356 0.08966565 0.11719896 0.106040105 0.07095112 -0.0015286526 -0.080499694 -0.11554487 -0.10735343 0.119347125 0.01946281 0.09543139 -0.1012259 -0.1165947 -0.084471285 0.12031537 -0.026953205 -0.039467935 -0.039023936 -0.119927436 0.092890695 0.07693461 -0.1049211 -0.09931285 -0.08534115 0.053577386 0.04036715 -0.07777572
directory 0.053115796 -0.09655984 0.09442966 0.05325629 0.09909666 0.0964818 0.09577718 0.02000306 -0.1246427 -0.07420524 -0.0853672 0.112564586 0.020234535 0.0677074 -0.08402491 -0.11502073 -0.0293489 0.12993185 -0.046138156 -0.05549345 -0.07539251 -0.09909163 0.09460602 0.05864195 -0.081411675 -0.14430717 -0.08582048 0.07915291 0.086242735 -0.09763429
en 0.041857444 -0.050273336 0.14135318 0.05514565 0.07975786 0.09967966 0.0910654 0.082714 -0.08780807 -0.14109641 -0.14636815 0.12219034 0.052464735 0.04197856 -0.115453154 -0.1373734 -0.0031559614 0.13231598 -0.10392689 -0.09999491 -0.023047293 -0.06807551 0.08061428 0.13185535 -0.12423412 -0.16854523 -0.059078626 0.039323293 0.07299791 -0.09400279
espa 0.086542845 -0.11639345 0.09675621 0.123669595 0.11615497 0.12541687 0.11130847 0.1343024 -0.10409385 -0.14190784 -0.075416125 0.061953764 -0.08205769 0.064955205 -0.102410175 -0.099579096 -0.002385707 0.12477275 -0.12643234 -0.0750992 -0.06323632 -0.10470011 0.12925772 0.0741197 -0.06073452 -0.116555646 -0.14770967 0.013737113 0.14456077 -0.09451709
ol 0.121482894 -0.12313382 0.11548612 0.0342757 0.089211084 0.01588803 0.11409419 0.11702327 -0.11782315 -0.10082229 -0.095023 0.122611694 -0.058328323 0.030336693 -0.1229963 -0.10850999 -0.009371366 0.149435 -0.12749635 -0.026902044 -0.02987936 -0.08632203 0.13807946 0.024275072 -0.09319786 -0.12414774 -0.12215345 0.10101341 0.0762097 -0.08320679
site 0.059303224 -0.06251479 0.1332386 0.004496151 0.045139216 0.03482963 0.089403026 -0.0075458684 -0.039317284 -0.12530091 -0.12589288 0.12616642 -0.08852877 0.030187206 -0.074678175 -0.11700299 -0.05372888 0.085503645 -0.04234197 0.032018766 0.027471444 -0.032242455 0.072046995 0.0015102781 -0.06153724 -0.12579028 -0.043392356 0.06948996 -0.0044790413 -0.06574411
menu 0.091492034 -0.07273563 0.07756855 0.067678966 0.074646994 0.107343026 0.09166283 -0.06382388 -0.04160757 -0.078665026 -0.112564325 0.05957362 -0.062612 0.06188611 -0.09110694 -0.113702655 -0.08163702 0.10313114 0.02858061 0.07974579 0.067909986 -0.061440457 0.06816044 0.020204503 -0.07401278 -0.06734742 -0.052970383 -0.015451964 -0.06893565 -0.111014634
home 0.17351995 -0.14367065 0.1513812 0.104101345 0.08175562 0.06322254 0.0960085 -0.10656561 0.004406795 -0.11837373 -0.17964078 0.11476276 -0.09986982 0.110255666 -0.13389312 -0.09167743 -0.11600423 0.13971858 0.041102193 0.16100554 0.11494421 -0.13508229 0.15362906 -0.09125466 -0.07187152 -0.14985496 -0.09637279 0.10190415 -0.10314612 -0.11417042
information 0.1275529 -0.095398925 0.09531317 0.0139256315 0.14742914 0.05126966 0.13330035 -0.13045268 -0.10317464 -0.12330909 -0.11974815 0.03947296 -0.15763195 0.11429879 -0.11897054 -0.15852734 -0.025444845 0.080436595 0.15405978 0.17969882 0.13287497 -0.11694162 0.06694327 -0.028977674 -0.11899278 -0.15071529 0.12647666 -0.10901177 -0.09170281 -0.12311207
care 0.121052906 -0.1053221 0.10630162 0.084721036 0.083162285 0.11032849 0.08925218 -0.11302937 0.0023382183 -0.11672684 -0.12957375 0.025957908 -0.11890431 0.060715318 -0.106134534 -0.09249035 -0.08321807 0.11802704 0.07312157 0.09067076 0.10757685 -0.081874214 0.053891636 0.10605051 -0.09686965 -0.09636486 0.0026010433 0.03112234 -0.12108304 -0.1465669
providers 0.12764986 -0.14725733 0.109106936 0.08797985 0.101385035 0.0723406 0.14502136 -0.067017205 -0.014639539 -0.06671444 -0.08519993 -0.03686362 -0.13654879 0.08855734 -0.0712837 -0.10040844 -0.078598976 0.07016102 0.13709874 0.1256103 0.08540742 -0.08244658 0.0055367593 0.09636457 -0.09150171 -0.066141 0.007461958 -0.09380073 -0.09182803 -0.1576291
facilities 0.07470702 -0.15034479 0.096845925 0.06043825 0.09171701 0.12152685 0.15516809 -0.06812672 -0.017673347 -0.09247163 -0.09384709 -0.04626755 -0.116959356 0.08774143 -0.11293407 -0.124413334 -0.10633835 0.09013424 0.14440787 0.09726368 0.09534477 -0.11848216 0.028488718 0.075724885 -0.09441939 -0.092815 -0.021160616 0.009418189 -0.076652296 -0.0936546
info 0.12332225 -0.11581863 0.11376868 0.10888547 0.116539225 0.14062291 0.07820902 -0.14990579 -0.10179495 -0.10227395 -0.14124787 -0.0833997 -0.16049549 0.10642455 -0.10661058 -0.11993433 -0.17727499 0.08961887 0.14217536 0.1026202 0.07479272 -0.11566323 0.07728991 0.1225935 -0.1089469 -0.09680896 -0.1210937 0.016530348 -0.13924515 -0.10418811
lines 0.09560556 -0.12876596 0.08633364 0.024508078 0.045916457 0.10125936 0.079845086 -0.13078316 -0.09391042 -0.09674834 -0.11040656 -0.0726973 -0.10141055 0.097316556 -0.058417577 -0.14526242 -0.12229753 0.09912296 0.100055315 0.078469954 0.11576342 -0.123895675 0.080375455 0.08809316 -0.06642553 -0.088258184 -0.09210642 0.015293082 -0.050987404 -0.078003176
healthcare.gov 0.086728334 -0.123149395 0.10051204 0.0050305114 -0.035582066 0.07369253 0.10515341 -0.090485506 -0.13401724 -0.103951715 -0.1121484 -0.06738933 -0.09770893 0.08547492 -0.12570201 -0.14278582 -0.10649597 0.13354698 0.06599886 0.12247447 0.13080779 -0.11370851 0.072920725 0.09184354 -0.07365245 -0.13104893 -0.1602777 0.07992468 -0.045821227 -0.09554497
science 0.1338375 -0.16946107 0.13470887 0.08715806 -0.12556267 0.16304244 0.09940257 -0.15785372 -0.13275042 -0.16116856 -0.1515179 -0.08461711 -0.034671176 0.10811421 -0.09840022 -0.11353034 -0.1718999 0.14917572 0.13540874 0.15575327 0.16917467 -0.13545889 0.10890046 -0.020579686 -0.025229823 -0.14346062 -0.13004085 0.14458698 -0.053300988 -0.09297731
education 0.13657813 -0.05821811 0.08909145 0.01698853 -0.0831032 0.10116302 0.11594494 -0.15930232 -0.16447745 -0.13330726 -0.09196817 -0.1327259 -0.08660609 0.14956021 -0.1444179 -0.1524094 -0.13445106 0.15926702 0.12230798 0.16496424 0.17034031 -0.099854186 0.076042406 0.07731434 -0.07441373 -0.10727569 -0.15302698 0.12006366 -0.05676686 -0.094948985
resources 0.10922072 0.012262858 0.14656122 0.027885364 -0.0032408508 0.091451466 0.03157963 -0.0885337 -0.15434076 -0.1758237 -0.1281802 -0.18033756 -0.015769107 0.13345002 -0.13812825 -0.17274807 -0.10818865 0.06437248 0.12133185 0.13885333 0.14470086 -0.1073745 0.14211236 0.104555406 0.060462743 -0.10139443 -0.16330943 0.046351623 -0.13711251 -0.121166445
clinical 0.113201864 -0.03903045 0.16873486 0.12795436 0.1405461 0.1006511 0.059093736 -0.1236062 -0.109642 -0.09521337 -0.088189974 -0.08807687 0.02021623 0.14850071 -0.09032644 -0.16537096 -0.10947999 0.1646842 0.14194527 0.14992855 0.14078493 -0.15182842 0.13728234 0.062803365 0.12881248 -0.10035818 -0.12761052 0.11992275 -0.12289569 -0.14719574
research 0.14535694 0.05342996 0.1751735 0.047858626 -0.11601189 0.11973701 0.15151079 -0.095921315 -0.11136981 -0.116746955 -0.12354962 -0.15771969 -0.13174054 0.14453268 -0.17745337 -0.11995993 -0.1442456 0.15829882 0.17705014 0.14166541 0.1480766 -0.15552689 0.12504272 0.16066408 -0.1422228 -0.18096325 -0.15150103 -0.034571134 -0.15152222 -0.09179051
trials 0.13601784 -0.07775757 0.115715005 0.1661899 -0.08369613 0.06459311 0.09516332 -0.1340299 -0.12297532 -0.14028299 -0.08304279 -0.07046069 0.015415614 0.1418905 -0.10807369 -0.12485863 -0.15334915 0.14980713 0.09308262 0.1161231 0.06834404 -0.08338974 0.13380231 -0.018064681 0.07341419 -0.0979119 -0.0780187 -0.00014601834 -0.083919175 -0.14640905
and 0.12067904 -0.11247721 0.10648932 0.1411262 0.11238975 0.14229877 0.18438432 -0.10610845 -0.13566008 -0.107107595 -0.15556468 -0.15857188 -0.019409703 0.110331506 -0.1814056 -0.17502084 -0.089025185 0.16861638 0.1671399 0.16210487 0.18336059 -0.10726873 0.16825771 0.15029946 0.0074746464 -0.17518516 -0.11924453 0.134818 -0.09525443 -0.15374143
you 0.1125 -0.09083691 0.14001358 0.11568138 -0.06385973 0.10698358 0.11799944 -0.11733286 -0.0612281 -0.0944226 -0.15463111 -0.06802706 0.035745826 0.16258891 -0.085900344 -0.10111974 -0.11909501 0.14272156 0.06448531 0.12851115 0.13613938 -0.13517009 0.085475996 0.068910874 0.05448256 -0.10322181 -0.11716663 0.06358088 -0.0836745 -0.11463604
talking 0.06813436 -0.108801864 0.08673949 0.14393704 -0.05547528 0.07761746 0.10902461 -0.10872418 -0.030624192 -0.07438797 -0.09201788 0.05577371 0.022025844 0.11405162 -0.13011783 -0.12589286 -0.059372213 0.1061788 0.08913388 0.08265808 0.09462583 -0.14857626 0.07460419 0.05269378 0.10128878 -0.08163488 -0.061539307 -0.10605584 -0.07217719 -0.10357795
your 0.0902248 -0.06926467 0.06938249 0.108784765 -0.07889879 0.14351743 0.06275502 -0.11957509 -0.016245708 -0.11611177 -0.116053015 0.069313265 -0.084597595 0.10002684 -0.1605877 -0.10499958 -0.066228226 0.078614645 0.10251631 0.09197968 0.13052021 -0.16298284 0.10149731 0.12718636 0.125749 -0.10120055 -0.059662413 -0.05389516 -0.11022838 -0.12374825
doctor 0.095640056 -0.099667214 0.05161826 0.14069933 -0.01892193 0.10394847 0.037072346 -0.10888574 -0.04225198 -0.10753978 -0.13356987 0.0712405 -0.047603704 0.056257702 -0.142376 -0.13871281 -0.034019988 0.06093471 0.08860193 0.10906065 0.109778956 -0.09776666 0.10168332 0.093101434 0.058786202 -0.10503154 -0.022313377 -0.06335978 -0.08264879 -0.09593018
more 0.17386375 -0.13382553 0.17245075 0.03355999 0.0528549 -0.093805246 -0.13566223 -0.16720408 -0.04032751 -0.1620251 -0.05555432 0.1295017 -0.14693955 -0.10446729 -0.08142943 -0.11126225 0.12831528 0.10144299 0.15350427 0.15367325 0.10689802 -0.12857233 0.1172986 0.09770318 -0.17476748 -0.14668716 0.11943245 -0.1783885 -0.15788482 -0.14644077
topics 0.14732145 -0.074953906 0.12610285 0.10756847 0.08920651 0.05451911 0.021585574 -0.14852276 -0.07078886 -0.10782873 -0.086879544 0.101019874 -0.12631361 -0.014899387 -0.08736511 -0.13873518 -0.06717173 0.13397947 0.14057153 0.12909627 0.097683065 -0.12361041 0.06834552 0.122137986 -0.09865219 -0.08801393 0.08034184 -0.09769002 -0.1345271 -0.101820245
quick 0.14754178 -0.16499843 0.13741823 0.14384753 0.10420686 -0.15208189 -0.13789082 -0.17613178 0.012537831 -0.08850674 -0.10633973 0.15299886 -0.15519917 -0.08496342 -0.11924967 -0.108305804 0.15642174 0.1208352 0.13674659 0.1707744 0.09579297 -0.13638769 0.07022138 0.15211959 -0.10047618 -0.114405975 0.08516108 -0.10542755 -0.13053362 -0.07177284
links 0.1461129 -0.10576645 0.10548141 0.10920862 0.1559777 -0.053603046 -0.11839953 -0.16535121 -0.14599186 -0.1072677 -0.1625584 0.11482011 -0.12174096 -0.13610347 -0.097285815 -0.10644452 -0.1047061 0.15424836 0.1495095 0.10888354 0.16191922 -0.11331304 0.087550044 0.17524093 0.0400936 -0.005408806 0.14600678 -0.14168711 -0.08676604 -0.066985786
medlineplus 0.12831828 -0.1450698 0.14253105 0.069938086 0.09413801 0.033376355 0.013360926 -0.0878292 -0.03826232 -0.087281644 -0.08178674 0.09330916 -0.1265542 -0.0048576775 -0.1072116 -0.1307737 -0.049521238 0.14285907 0.15010448 0.12547286 0.10352584 -0.08943832 0.056131776 0.104020886 -0.08978078 -0.06944577 0.031778064 -0.12869988 -0.075159304 -0.13379498
news 0.12814347 -0.07936013 0.14234239 0.12436001 0.062034294 0.14567964 0.1281269 -0.18254197 -0.11702458 -0.14693391 -0.11503823 -0.11279988 -0.10955198 0.13922366 -0.08063499 -0.07047373 -0.13814184 0.12939772 0.156956 0.14385903 0.115085416 -0.06047247 0.13792263 0.15686856 -0.14871716 -0.124126665 -0.15158091 0.0014123356 -0.16397579 -0.12175353
in 0.14397916 -0.0740138 0.12875032 0.1386093 0.14365116 0.11128952 0.16728891 -0.14433652 -0.14062664 -0.16972625 -0.12757754 -0.16427726 -0.11325723 0.13542028 -0.11296916 -0.17462473 -0.082458764 0.108016066 0.15579449 0.14394392 0.09884644 -0.0869304 0.07979482 0.1198862 -0.115893975 -0.10515063 -0.13660303 0.118717246 -0.1742414 -0.099071786
wellness 0.09870514 -0.108412094 0.12290359 0.06134915 -0.07428778 0.11511547 0.15211993 -0.11411695 -0.026387418 -0.07114492 -0.11173212 0.03968024 -0.069658056 0.101086736 -0.11041204 -0.10411444 -0.08179019 0.09280749 0.104360424 0.13966647 0.08003268 -0.07375374 0.08950865 0.05819253 -0.03730905 -0.06616916 -0.08359638 0.044012256 -0.11144243 -0.083623886
toolkits 0.09268516 -0.060333103 0.11121943 0.12411922 -0.048422273 0.10829877 0.15621346 -0.061505754 0.007635764 -0.111023255 -0.09833158 0.11156131 -0.08983118 0.0656633 -0.08698074 -0.051670488 -0.09880467 0.11765775 0.09478077 0.08705761 0.07118146 -0.077986464 0.12586704 -0.0039050067 -0.05124031 -0.10155004 -0.084167644 0.06358336 -0.13645129 -0.14346878
grants 0.10788702 0.06178574 0.15244628 0.14917159 -0.16906369 0.054671068 0.14483808 -0.113173895 0.00718316 -0.07865187 -0.16281843 0.15815656 -0.09636087 0.08287825 -0.094086334 0.04759376 -0.082384035 -0.005723378 0.041184794 0.14383349 0.0909027 -0.13736513 0.103951715 -0.12112146 -0.06050639 -0.11039274 -0.108707495 0.17329791 -0.13049926 -0.1703617
funding 0.15107536 -0.023952508 0.16278304 0.07279768 -0.1004095 -0.0069748415 0.17279525 -0.13635936 0.02927729 -0.07964872 -0.13172671 0.13245556 -0.116989896 0.13771161 -0.10513302 -0.03132724 -0.08106625 0.0823735 -0.008124135 0.16327453 0.11063263 -0.10151675 0.13955472 -0.08529249 0.09573905 -0.082314834 -0.122651435 0.1376407 -0.1564412 -0.1451965
page 0.0825029 -0.00507988 0.12508929 0.08437095 -0.052770894 -0.023677371 0.10376 -0.14071618 0.052355286 -0.08418054 -0.06775066 0.060002647 -0.089707255 0.10334976 -0.075560495 -0.010851024 -0.07106909 0.061607916 0.0018039942 0.066987135 0.10622724 -0.06760868 0.13140954 -0.106361896 0.032955743 -0.09893992 -0.099738434 0.09269364 -0.123626195 -0.120532766
find 0.13571954 -0.06270336 0.15494066 0.057946257 -0.08291745 -0.022558143 0.08163801 -0.13490717 0.0020305412 -0.077209294 -0.10071764 0.09164842 -0.07965595 0.14454715 -0.090132125 -0.048892763 -0.077971645 0.035341494 -0.029397182 0.10756287 0.09778842 -0.06736917 0.10186654 -0.050246667 -0.012105174 -0.09653297 -0.10130456 0.079613134 -0.11698447 -0.157972
due 0.09787172 -0.07877844 0.13924517 0.06240543 -0.1500662 -0.023095911 0.10809653 -0.1012578 0.06262215 -0.10699882 -0.07441926 0.056580763 -0.075284794 0.08616164 -0.099441476 0.010158389 0.014633873 0.07249117 -0.06924627 0.11243405 0.12079407 -0.066839546 0.09766632 -0.02149109 0.07658684 -0.05968622 -0.1431695 0.0909546 -0.083021484 -0.083833195
dates 0.10262506 -0.03311669 0.115754 0.08223169 -0.115141034 0.027648117 0.085479245 -0.09551379 0.03626997 -0.07640515 -0.07231965 0.11796139 -0.021305552 0.16144152 -0.16198477 -0.041122053 -0.017337788 0.028640375 -0.078347355 0.08462879 0.1027406 -0.10460811 0.09526963 0.07264229 0.042701013 -0.080659606 -0.08377894 0.03140344 -0.07102128 -0.095660895
how 0.09668327 -0.049350563 0.09013714 0.08738234 -0.09852395 0.108952306 0.07122088 -0.113607414 -0.037418984 -0.086572185 -0.12085665 0.11220553 -0.021640867 0.14579636 -0.07986537 -0.100424364 -0.000787899 0.04568097 0.020254225 0.12415376 0.15659565 -0.08258987 0.09595798 0.13293006 0.08252539 -0.078223124 -0.07874684 0.045300793 -0.07907111 -0.12136373
apply 0.10035604 0.020657768 0.12212987 0.10570739 -0.112873 0.11247529 0.08741671 -0.08766524 0.01785003 -0.08247276 -0.0951254 0.097284384 -0.05389261 0.13623089 -0.12732174 -0.09224741 -0.011140474 0.06619021 0.014988395 0.109566316 0.07838391 -0.14040367 0.11761464 0.04638309 0.057953697 -0.12493359 -0.1266178 0.048071887 -0.11950173 -0.1155662
about 0.10262478 -0.06724572 0.11993216 0.16853246 -0.069292635 0.076864414 0.15911308 -0.1319919 -0.07239936 -0.098023005 -0.16204137 0.09120645 -0.040713638 0.14514215 -0.1488059 -0.1087975 -0.09577263 0.11888438 0.13635644 0.13397211 0.12814392 -0.12533006 0.15262495 0.09117976 -0.0684244 -0.088470936 -0.13632719 0.117004395 -0.12222608 -0.1325577
policy 0.11008994 0.14117701 0.09413586 0.079201385 -0.072219245 0.08535005 0.13892342 -0.1374701 0.058926642 -0.08526149 -0.090930656 0.13688444 -0.052540615 0.05531036 -0.14869456 -0.009461037 -0.015642703 0.053418543 0.08213639 0.13545784 0.07774175 -0.13474503 0.111922786 -0.10149 -0.04560601 -0.11512021 -0.08927743 0.048188698 -0.076950744 -0.09100189
compliance 0.084632434 0.11359851 0.083032444 0.10690097 -0.11665584 0.07320355 0.06714847 -0.08507592 0.012256609 -0.043222044 -0.123404175 0.092644826 -0.09146364 0.07905195 -0.08424115 0.023298679 -0.09582798 0.053617485 0.08934166 0.10605414 0.116648056 -0.07062609 0.076054946 -0.048550006 0.022280527 -0.108953424 -0.08012139 0.10449973 -0.09169832 -0.10076826
blog 0.08159464 0.10300161 0.09409139 0.05965279 -0.034870826 0.06317899 0.062798396 -0.11078897 -0.045791924 -0.097284846 -0.089408986 0.049329914 -0.08522972 0.1077288 -0.10722138 -0.009010818 -0.11487463 0.07422946 0.13318571 0.09023165 0.12184497 -0.067161195 0.07032718 0.08095065 0.010130649 -0.07799873 -0.13861929 0.10936274 -0.14552772 -0.100517124
contracts 0.13526411 0.03036022 0.100512005 0.08244991 -0.008087126 0.00024781737 0.02860073 -0.11757491 -0.07081701 -0.08535374 -0.12143147 0.05715336 -0.08067263 0.05950992 -0.07354293 -0.02510001 -0.098155245 0.07137961 0.1106402 0.09430306 0.067866094 -0.090921454 0.11424675 0.11577689 -0.06123489 -0.09011196 -0.13501085 0.094174035 -0.15112975 -0.09769698
loan 0.15358578 -0.0639361 0.089025855 0.06397709 0.061009567 -0.07520125 0.00076344813 -0.086194515 -0.03234076 -0.09749003 -0.08692751 0.107765645 -0.06834742 0.0009209071 -0.07524455 0.0011471323 -0.0373896 0.05538642 0.1115603 0.10039335 0.06091489 -0.15503949 0.08572437 0.10012173 0.013979398 -0.079371855 -0.07876727 0.00316333 -0.11020165 -0.07874058
repayment 0.107150786 -0.050679475 0.07951713 0.076456375 0.068947166 -0.04947542 -0.039981578 -0.10710083 -0.07876224 -0.08962425 -0.08475271 0.121267535 -0.13933031 -0.049187567 -0.117937304 -0.03397628 -0.054459784 0.094551906 0.10199628 0.10878894 0.13666053 -0.12495567 0.11617505 0.12797521 0.005425764 -0.05469782 -0.0053028553 -0.03960918 -0.13064626 -0.1098106
report 0.07821655 -0.08295404 0.12548798 0.05702771 0.03779512 -0.038295507 -0.04695237 -0.07653221 -0.048072223 -0.11266404 -0.0753625 0.073379375 -0.13963008 -0.038881958 -0.1006029 -0.089955576 0.0066089276 0.1325156 0.09908566 0.12896699 0.08442407 -0.123312145 0.079215065 0.13119341 -0.10061113 -0.054116435 0.08613824 -0.07335386 -0.09095554 -0.102075584
era 0.10976299 -0.1120789 0.10466988 0.10539945 0.05933062 0.008597431 -0.029184198 -0.070469536 -0.06227646 -0.13281459 -0.12880312 0.099122286 -0.14308754 0.019105325 -0.091840014 -0.062068865 0.0015700546 0.08081039 0.15074213 0.07256166 0.08958339 -0.107575975 0.1178055 0.094136976 -0.12068397 -0.10948031 0.01712718 -0.023551047 -0.0838369 -0.07893333
commons 0.09459029 -0.10579309 0.09247812 0.09499927 0.11220546 0.082578294 0.034316313 -0.08660745 -0.09380379 -0.16542843 -0.08756503 0.030278021 -0.12102422 0.081240505 -0.08490143 -0.09167149 -0.09754047 0.12377012 0.12213694 0.10522825 0.13495752 -0.1120882 0.092674725 0.08910506 -0.06324802 -0.088432066 -0.06308348 0.0012140471 -0.06436346 -0.064831726
common 0.09853532 -0.06866258 0.114777796 0.074672356 0.042977203 0.092842005 0.10562443 -0.11199749 -0.05749801 -0.09145053 -0.07681372 -0.0968415 -0.09516311 0.13278194 -0.12601124 -0.12436144 -0.097951725 0.07514403 0.11998148 0.11986916 0.12349681 -0.052166518 0.08508156 0.12587728 -0.08619685 -0.103238106 -0.09270954 0.11535328 -0.11927885 -0.0988457
fund 0.08585162 -0.08142143 0.12876113 0.097065456 0.0702049 0.071363695 0.08261711 -0.09948198 -0.12334117 -0.13858785 -0.12678035 -0.10248922 -0.10744566 0.07472262 -0.056251302 -0.08824847 -0.121873595 0.095616326 0.15209602 0.13156515 0.11537252 -0.054963917 0.0992638 0.09209763 -0.07643884 -0.10734228 -0.074938044 0.054396626 -0.08683205 -0.09700832
events 0.122695245 0.037151325 0.11965983 0.059851 0.10549796 0.10528662 0.06958006 -0.121460244 -0.16821088 -0.11536955 -0.10059042 -0.16329744 -0.10281033 0.10280303 -0.08761259 -0.069810726 -0.07581283 0.08218178 0.16032372 0.10586643 0.15390967 -0.016486188 0.1483764 0.14193505 -0.013197162 -0.109821185 -0.14112231 0.11324183 -0.07280196 -0.09983579
releases 0.12447887 -0.041476637 0.08187967 0.0118604805 0.06949227 0.09052664 0.025807967 -0.13926351 -0.12978393 -0.109548345 -0.017139405 -0.15306365 -0.082186125 0.11511896 0.01579911 0.04019769 -0.07390639 0.017354956 0.14069341 0.06752878 0.07751418 -0.06547929 0.08289846 0.1368979 -0.032999277 -0.097346164 -0.10772172 -0.055793222 -0.15413262 -0.08924678
digital 0.12435643 0.051423542 0.081289455 -0.06367657 0.11871274 0.06627817 -0.076996304 -0.10378473 -0.11342552 -0.096578814 0.0430088 -0.12196014 -0.10692598 0.13013813 0.026418773 0.025260054 -0.0090323305 -0.05979525 0.1296495 0.08110352 0.08446588 -0.09975238 0.11308624 0.1275754 0.061438233 -0.07911327 -0.095825955 -0.009853168 -0.12998086 -0.06178803
media 0.12585787 -0.02357613 0.049035203 -0.1166126 0.1624148 0.13424082 -0.115318716 -0.0987626 -0.09586479 -0.1415949 0.09434746 -0.106572874 -0.14742708 0.11003401 0.02102439 -0.0017280581 0.080018274 -0.011479989 0.102095395 0.15211836 0.102037586 -0.14650863 0.17822997 0.16952547 0.13090499 -0.12537979 -0.14616677 -0.13424748 -0.15672678 -0.13760534
kits 0.10694349 -0.050132275 0.069609225 -0.08480693 0.16192286 0.083142936 -0.07091985 -0.15583344 -0.10714834 -0.123666674 0.07907768 -0.098918945 -0.08117683 0.1295896 0.022680584 0.024671547 0.002277782 -0.04820643 0.15092097 0.08542376 0.11222352 -0.13421427 0.124211885 0.123424605 0.061845817 -0.10383839 -0.15808015 -0.066929564 -0.15475948 -0.121342264
contacts 0.10056591 -0.029188422 0.11238354 -0.061406344 0.08891963 0.08529346 0.020339804 -0.08378459 -0.09345988 -0.10420662 0.0029744194 -0.08005385 -0.016938915 0.12686662 -0.10674025 -0.120699115 -0.053428866 0.06397821 0.14892781 0.0942444 0.10205153 -0.14372252 0.09740635 0.09976066 0.057122733 -0.13972852 -0.06302989 -0.09850697 -0.10009692 -0.09616411
images 0.09978034 -0.11352338 0.06795332 -0.0047579426 0.088399306 0.084958375 0.051935572 -0.11255877 -0.11576557 -0.15151659 -0.007416468 -0.048899267 -0.04581529 0.15204762 -0.060330298 -0.091253065 -0.0009984091 0.090175636 0.13954869 0.106446095 0.12790462 -0.1488752 0.14806835 0.03976493 0.06724712 -0.12210312 -0.0793176 -0.088095106 -0.094513506 -0.111969486
b 0.05989045 -0.107549846 0.08084782 0.07521523 -0.0036310907 0.12495329 0.11864088 -0.07895149 -0.11780411 -0.101722986 -0.083179206 -0.07400631 0.023426011 0.11652753 -0.1518586 -0.105544396 -0.07659258 0.152536 0.10243642 0.07862825 0.111480825 -0.075217284 0.117822915 0.07540247 0.031780977 -0.13618223 -0.06658432 -0.12122263 -0.060132556 -0.10262441
roll 0.08913965 -0.11497352 0.08592349 0.077153966 0.024254693 0.11569563 0.058425184 -0.07415046 -0.10288076 -0.10927902 -0.020015344 -0.055144157 -0.051786285 0.09360349 -0.12138867 -0.10117408 -0.026171766 0.12737988 0.13917972 0.12169403 0.13986988 -0.13572389 0.08784282 0.0376395 0.0032011447 -0.093332134 -0.12051328 -0.079367466 -0.08924188 -0.13999687
social 0.17175402 -0.10820406 -0.008175682 0.0076126624 0.080090925 0.06786787 -0.044379022 -0.13146804 -0.101944335 -0.08035374 -0.05438244 -0.057750933 -0.09459681 0.08349863 -0.05866635 -0.01755521 0.068947844 0.024836266 0.13922901 0.093781754 0.08160618 -0.077413894 0.15717532 0.09407945 0.073112585 -0.08435909 -0.14049557 -0.13289584 -0.08595794 -0.085489824
matters 0.12008854 -0.1187746 0.1487181 0.1177226 0.046986494 0.10293602 0.07978665 -0.14320152 -0.16447963 -0.076597914 -0.111164935 -0.14545357 -0.049552243 0.106482744 -0.12549987 -0.07078952 -0.07177913 0.08196217 0.0966757 0.15529297 0.08127938 -0.07288504 0.073013715 0.0181151 -0.112637155 -0.15626015 -0.08502147 0.108445935 -0.103445254 -0.087960355
record 0.115810476 -0.049705043 0.078011505 0.11240481 -0.05365116 0.08401287 0.09894209 -0.09303486 -0.12866713 -0.07379264 -0.09850203 -0.11345216 -0.0759961 0.068206936 -0.10345986 -0.081051156 -0.10272974 0.10159647 0.10178734 0.14857452 0.08387205 -0.09681211 0.08209054 0.008926072 -0.062078394 -0.11152882 -0.08879858 0.041243043 -0.109011784 -0.08527037
training 0.10884398 -0.025579765 0.08438159 0.123592466 -0.120082594 0.062016368 0.056726087 -0.1255145 -0.102002546 -0.08994927 -0.0926007 -0.16164683 -0.03708855 0.0775461 -0.09729255 -0.11919386 -0.0981968 0.081265874 0.087615184 0.15598693 0.09888634 -0.09906214 0.119169444 -0.04252366 -0.01475825 -0.09542467 -0.1113906 0.13136227 -0.15639864 -0.14482987
medical 0.13203888 -0.035373278 0.13921103 0.12217699 -0.10961448 0.08011329 0.11143051 -0.10120367 -0.09541455 -0.08043389 -0.09747802 -0.15527186 -0.060835555 0.12509173 -0.13774946 -0.13537346 -0.08086611 0.10028816 0.10149636 0.118545786 0.084931746 -0.081600696 0.11166178 -0.09778542 0.023756938 -0.054560453 -0.08136492 0.09769513 -0.09799421 -0.1282857
initiatives 0.11309089 -0.0024803155 0.108922794 0.037735473 -0.10042037 0.058479205 0.089195624 -0.13272274 -0.07598302 -0.08291316 -0.13378835 -0.13460034 -0.03859876 0.12350198 -0.07699843 -0.091716275 -0.08683912 0.110083036 0.085443705 0.1411504 0.11171757 -0.075630754 0.07877965 0.01805137 -0.0088021485 -0.0781374 -0.14989968 0.13188988 -0.062270273 -0.15085123
highlights 0.112114765 -0.0056352774 0.11609032 -0.03421415 -0.1427862 0.12615031 0.16484082 -0.13576563 -0.13849266 -0.14504796 -0.14587405 -0.06710115 -0.1028578 0.13732596 -0.14026539 -0.07953773 -0.08080817 0.106613345 0.08435875 0.106044285 0.07944866 -0.07936485 0.13591124 0.057688344 -0.050209638 -0.12171734 -0.07183336 0.11667467 -0.0308205 -0.07491799
labs 0.14834248 -0.07217906 0.1151009 0.06934063 -0.120450415 0.109682396 0.11855338 -0.13000748 -0.10081474 -0.06637774 -0.08788622 -0.12764886 -0.09059509 0.11839134 -0.110570066 -0.1048509 -0.111184634 0.078768305 0.12839846 0.09888952 0.107512675 -0.10802496 0.11125513 0.061395347 -0.09271846 -0.13152832 -0.14544187 -0.019699022 -0.10546103 -0.13148923
clinics 0.08862805 -0.03377263 0.14484248 0.10347457 -0.054966856 0.12705657 0.14956686 -0.113192044 -0.09048474 -0.048371963 -0.08958501 -0.106533885 -0.06223306 0.07279574 -0.08165828 -0.15881166 -0.13077609 0.14076307 0.12542486 0.11078043 0.092229836 -0.13217337 0.13088608 0.0037600072 -0.087617084 -0.07436484 -0.11190769 0.018869745 -0.16671684 -0.08560816
opportunities 0.10778041 0.106329754 0.089627594 -0.028877404 -0.12200684 0.098197065 0.08924083 -0.047178164 -0.054385588 -0.039801735 -0.037481688 -0.13017642 -0.042560812 0.113516025 -0.105585545 -0.1319512 -0.13814038 0.14835998 0.13811406 0.13117273 0.12310796 -0.11863374 0.09904532 0.08644479 -0.028819846 -0.13744064 -0.12404303 -0.08123037 -0.12649237 -0.13926005
library 0.13695456 0.027429301 0.16526271 0.09093966 -0.038275626 0.09874126 0.07020543 -0.085615106 -0.06325609 -0.054069947 -0.073017254 -0.16402198 -0.02364945 0.11995275 -0.10609226 -0.1532623 -0.070739694 0.12869412 0.08666201 0.13344812 0.13341814 -0.08049051 0.11372426 0.016384222 0.04562244 -0.077532575 -0.12248865 0.024784876 -0.084866166 -0.1724471
safety 0.07851725 -0.060807995 0.13210833 0.0753374 -0.01257903 0.1058401 0.054176196 -0.14542702 -0.14350139 -0.116383314 -0.09937213 -0.049792226 0.058842253 0.09768819 -0.14354493 -0.15333268 -0.06355184 0.12601371 0.09257145 0.14125726 0.13740635 -0.13054717 0.10038332 0.00895167 0.08788344 -0.10965748 -0.13057414 -0.009316128 -0.09985918 -0.1449488
regulation 0.09873312 -0.0125885345 0.11459816 0.03799638 -0.0075642373 0.077628836 0.07593064 -0.08001576 -0.10201391 -0.10735719 -0.071830735 -0.048932884 0.024677655 0.13956824 -0.14112583 -0.11650107 -0.05119053 0.122707985 0.13199078 0.14305317 0.104606494 -0.10959275 0.073871784 0.12904431 0.027639655 -0.07195966 -0.13097696 -0.08009759 -0.09225821 -0.11248265
guidance 0.08720383 -0.063025 0.08363298 0.1392432 0.048001375 0.07352816 0.001700657 -0.16694534 -0.075384825 -0.124240525 -0.10539759 0.11870533 -0.042260636 0.060842536 -0.079550475 -0.10024561 -0.060028177 0.08428414 0.14564678 0.13305186 0.14064905 -0.14160994 0.07929443 0.06323949 0.05128087 -0.07510867 -0.03983724 -0.10294017 -0.09902512 -0.118832834
pubmed 0.15551229 -0.07580341 0.10093915 0.055244595 0.09382976 -0.08989599 -0.10156248 -0.15482056 -0.022728384 -0.080088004 -0.057653744 0.08730574 -0.115103215 -0.056057576 -0.08928523 -0.10482261 0.08582922 0.06863493 0.14353424 0.06665848 0.13840644 -0.1013145 0.04285682 0.10966498 -0.10615863 -0.09189544 0.114579886 -0.061221663 -0.11430892 -0.09399391
stem 0.11585954 -0.104103506 0.11854012 0.06245435 0.08593455 -0.11133115 -0.0027837595 -0.09295824 0.026257467 -0.07743003 -0.08900066 0.1274112 -0.11056522 -0.033158764 -0.092717156 -0.0778199 0.11452546 0.13501942 0.110618964 0.13018247 0.09496596 -0.116552986 0.08184834 0.088158585 -0.10142909 -0.0923304 0.114303485 -0.03250124 -0.08600698 -0.05903351
cell 0.15413831 -0.115108505 0.09149984 0.033131514 0.13544217 -0.07633103 0.048507594 -0.11453318 -0.031891588 -0.06498496 -0.11409075 0.0765016 -0.12769778 0.06849575 -0.110226735 -0.074775204 0.022080759 0.088488705 0.14689642 0.16505863 0.10719181 -0.086730815 0.07365493 0.09219496 -0.10194307 -0.0751991 0.12532504 -0.009482505 -0.037685413 -0.07199741
oppnet 0.14608616 -0.0812759 0.10459794 0.06557588 0.12663744 0.008170217 0.09948493 -0.116788715 -0.08318319 -0.09035622 -0.08483509 0.052980658 -0.09571108 0.07162027 -0.11175794 -0.08680032 -0.025855027 0.11017216 0.11165441 0.06586531 0.14059524 -0.11666552 0.100625135 0.036791436 -0.118173875 -0.084768094 0.032658193 0.058721215 -0.059639666 -0.13456827
nidb 0.123193465 -0.12579174 0.12156437 0.09337109 0.11188545 0.059466425 0.13258293 -0.13402842 -0.08767196 -0.06795201 -0.115017995 0.042860534 -0.099184185 0.10168975 -0.122361206 -0.09460247 -0.066508 0.098964155 0.07811936 0.07612748 0.097919844 -0.08588442 0.097080715 0.030438114 -0.0796355 -0.06955352 0.003483228 0.046930127 -0.062427662 -0.07760412
blueprint 0.12458975 -0.05329504 0.10239358 0.08552558 0.041352816 0.090342745 0.09587384 -0.11714504 -0.108377114 -0.07509752 -0.11023825 -0.05339319 -0.052052412 0.10493167 -0.08748161 -0.111192465 -0.07530957 0.09991468 0.1523945 0.10686779 0.11263739 -0.073634654 0.09478808 0.0701271 -0.05315046 -0.16409257 -0.02617756 -0.0037501864 -0.08896612 -0.131253
for 0.13257931 -0.08904676 0.1304216 0.14879104 0.0039866874 0.080222905 0.14784957 -0.13284805 -0.11294514 -0.08506745 -0.12562744 -0.044388667 -0.034617424 0.09331138 -0.115311615 -0.14815931 -0.10176017 0.102816366 0.111990474 0.14625023 0.13409157 -0.07899705 0.1320403 0.0003808916 -0.05080182 -0.094455324 -0.08021343 0.08262067 -0.100257546 -0.084333785
neuroscience 0.10436274 -0.108562246 0.11276372 0.10489153 -0.0599808 0.093633875 0.07940269 -0.1461081 -0.07488664 -0.10550406 -0.09834151 -0.032092236 -0.06927331 0.08447924 -0.085263446 -0.10199299 -0.11427386 0.080904104 0.11361917 0.11045177 0.11954397 -0.06562135 0.09374664 0.032926533 -0.011909631 -0.07756026 -0.07596014 0.08787602 -0.07999541 -0.13784939
at 0.08150625 -0.13166417 0.08511991 0.12926559 0.08892656 0.08125613 0.10177545 -0.09065625 -0.15673839 -0.103969224 -0.15026249 -0.09070379 -0.06890715 0.10932399 -0.119643584 -0.12057415 -0.14110689 0.12017659 0.118843056 0.16025361 0.11223639 -0.08982584 0.11967535 0.015024292 -0.07309792 -0.08066013 -0.1164701 0.07745519 -0.08563568 -0.16039896
list 0.061898656 -0.07265567 0.14843728 0.14060435 0.024681035 0.08939607 0.11029294 -0.07876866 -0.08958599 -0.11355997 -0.1489803 0.099384606 -0.05677073 0.08479304 -0.107332334 -0.10739322 -0.15143077 0.14093618 0.11138281 0.09811806 0.1190986 -0.14370121 0.095462516 0.1341258 -0.07374554 -0.11467464 -0.10805929 0.12551554 -0.075387925 -0.10574528
centers 0.08261215 -0.16775219 0.07974069 0.10977603 -0.023893446 0.11876605 0.11223985 -0.1537946 -0.1563739 -0.14998828 -0.080288574 0.11264667 -0.0361756 0.11002597 -0.16930392 -0.112183675 -0.11472221 0.14574032 0.108584836 0.11475476 0.072869524 -0.17037927 0.084975235 0.021863634 -0.12437584 -0.11373207 -0.12557201 0.10972298 -0.13486843 -0.090591006
office 0.05339414 -0.085502364 0.15341862 0.097913 0.111447014 0.09834392 0.13848317 -0.08713572 -0.08071999 -0.10205458 -0.16712578 0.13796504 0.031841416 0.06373066 -0.16302902 -0.09493561 -0.09406599 0.07366147 0.1276203 0.07692849 0.10668889 -0.16718064 0.09196567 0.121659614 -0.12469363 -0.11059728 -0.05712108 0.11310772 -0.10267844 -0.14139514
director 0.113557905 -0.15593834 0.17536055 0.120166644 0.112728275 0.104573615 0.11506922 -0.11416946 -0.15917662 -0.131466 -0.07975869 0.10038917 0.068557926 0.116545804 -0.16607493 -0.10377408 -0.1317084 0.11451303 0.11950118 0.12572134 0.097797364 -0.13581306 0.12538719 0.12020941 -0.14466721 -0.12048412 -0.11915689 0.16554657 -0.09951745 -0.09584535
directors 0.119408 -0.15079674 0.08358815 0.1436275 0.07469379 0.068514094 0.12407859 -0.06858208 -0.15404403 -0.108443044 -0.09719083 0.08865069 -0.0027295176 0.10454857 -0.11739327 -0.10822622 -0.10784915 0.1217356 0.110136405 0.13018607 0.08558116 -0.11940398 0.15563913 0.11757147 -0.12703411 -0.115778595 -0.079052314 0.10676996 -0.112488285 -0.123671405
institute 0.10139037 -0.06643786 0.08958013 0.123238176 0.07347761 0.067480296 0.09372097 -0.12839226 -0.068926774 -0.120277435 -0.12680244 0.038755246 0.02574583 0.06546844 -0.13112436 -0.13190791 -0.0588427 0.0868767 0.15296721 0.12495924 0.082611986 -0.07697846 0.11322727 -0.016960992 -0.02448999 -0.14312086 -0.0009104869 0.07141501 -0.06393768 -0.082665116
center 0.09927381 -0.08096644 0.09669084 0.047560688 -0.087552644 0.060912527 0.08664914 -0.120946676 -0.1037999 -0.09911627 -0.08253271 0.13819678 -0.051121376 0.06820645 -0.12415901 -0.09154965 -0.019642215 0.09091778 0.09964832 0.09195579 0.06737173 -0.11824859 0.09123313 -0.06556669 -0.09670437 -0.1298362 -0.004711873 0.007901467 -0.06575327 -0.08476046
contact 0.14493066 -0.10079957 0.07431943 0.039965056 0.057802346 -0.15257546 0.09344124 -0.08634381 -0.071090765 -0.06324296 -0.106871694 0.15327439 -0.16211812 -0.15632142 -0.11345276 -0.04471125 0.15807141 0.09248607 0.15299723 0.09888018 0.11003444 -0.114306405 -0.03894293 -0.0755822 0.124625154 -0.08214825 0.09328166 -0.057982888 -0.019481206 -0.024457365
nci 0.13017029 -0.0661706 0.12479117 0.11208166 0.11034039 -0.071439385 -0.14348459 -0.06699285 -0.07587974 -0.07908529 -0.04141617 0.12386137 -0.108133376 -0.058215152 -0.08818663 -0.078641735 0.039475564 0.095859855 0.07103544 0.12592733 0.09286307 -0.04957258 0.026827715 0.062058486 -0.062894985 -0.052016065 0.15473859 -0.11569239 -0.0776137 -0.02904467
nei 0.11772337 -0.0891026 0.10783793 0.09373563 0.064216435 -0.03369916 -0.107878745 -0.09490931 -0.05804602 -0.04157823 -0.063360475 0.092153944 -0.03336846 -0.11870632 -0.10077153 -0.061414592 0.046925195 0.082477674 0.06806582 0.11736252 0.06556164 -0.035403416 0.029632425 0.046851616 -0.05137518 -0.0134445885 0.10531369 -0.12114087 -0.105669096 0.06251237
nhlbi 0.060069874 -0.11031054 0.13153204 0.11597112 0.13046059 -0.02581356 -0.07036335 -0.04011202 -0.097503245 -0.01626762 -0.05344852 0.061379876 0.027562067 -0.12682736 -0.086668506 -0.00093738775 -0.055759612 0.035078906 0.014192506 0.09013147 0.046272885 0.019803133 0.0069992375 -0.012021028 -0.011078675 0.06455336 0.1273639 -0.108637854 -0.022953806 0.111878686
nhgri 0.082942344 -0.10208904 0.0866361 0.08762613 0.11962655 0.017349467 -0.036241278 -0.0022116147 -0.102132715 -0.0007616945 -0.06522151 0.03383262 0.05449722 -0.05248263 -0.040413637 0.0026408029 -0.07982323 0.05297782 -0.036972385 0.08475686 0.064038634 0.062526755 0.017613105 -0.045334548 -0.030194005 0.08324816 0.10851359 -0.074830435 -0.02866846 0.08898651
nia 0.07993753 -0.09400131 0.10471822 0.14019756 0.092118934 0.025559867 -0.009278759 0.019643966 -0.10594888 0.028150145 -0.10013585 0.008927192 0.07456954 -0.094211936 -0.071125016 -0.017689936 -0.07014801 0.05588438 -0.053421628 0.094391756 0.05643831 0.07720686 0.033202324 -0.058247186 -0.03431403 0.05526205 0.11371887 -0.058980767 0.0014626142 0.09899082
niaaa 0.056948982 -0.06771682 0.13891372 0.09786051 0.09681515 0.0043196348 0.01116203 0.0666346 -0.09013715 0.03969728 -0.099278934 -0.02936768 0.06749603 -0.111360356 -0.05045627 -0.016329395 -0.06302583 0.08212358 -0.093302265 0.06398895 0.021601474 0.07599232 0.053723466 -0.10890182 -0.054664426 0.060839992 0.080645114 -0.07459479 0.06499381 0.10900305
niaid 0.050578088 -0.045101136 0.10600185 0.06992677 0.060551714 0.002584421 0.03728143 0.0822732 -0.043360498 0.017538607 -0.12903674 -0.021611819 0.06329286 -0.050448794 -0.058164217 -0.014358893 -0.08127201 0.08567089 -0.110789396 0.060902983 0.019044232 0.028696325 0.055663247 -0.06931932 -0.08244622 0.060383666 0.116394445 -0.044765174 0.074726425 0.073333345
niams 0.07497409 -0.044888463 0.07993828 0.05691875 0.04348347 -0.000556777 0.08721903 0.053222172 -0.03215521 0.066179134 -0.07673911 -0.045052342 -0.014919717 -0.108398125 -0.07591036 -0.04471559 -0.08960557 0.098825924 -0.08028585 0.06502167 0.009883566 0.044712488 0.073275894 -0.05490237 -0.04179268 0.010009114 0.09736707 -0.03421453 0.053764816 0.07329878
nibib 0.062442593 0.016629081 0.08952408 0.02245882 0.09708041 -0.028343864 0.074889384 0.049408466 -0.0231061 0.06823247 -0.06076301 -0.09705466 -0.07855942 -0.085575186 -0.079852596 -0.055073403 -0.04511313 0.13446994 -0.11189842 0.02444269 -0.007677466 0.03552792 0.13191283 -0.08731516 -0.06751362 -0.014882091 0.07709042 -0.014927815 0.12336603 0.09027004
nichd 0.08897914 0.03918828 0.08209845 -0.0106878765 0.10939399 -0.053966623 0.08057408 0.10319241 0.0125958575 0.037868764 -0.06582562 -0.049524296 -0.046674788 -0.06149671 -0.0791022 -0.021144958 -0.0641022 0.1370343 -0.10089004 -0.012807189 -0.018089445 0.034324553 0.10561247 -0.045878325 -0.043768436 -0.02220934 0.13650258 0.0046863323 0.11590093 0.015635181
nidcd 0.10422497 0.010605177 0.044098083 -0.09360197 0.11754229 -0.08014988 0.094570726 0.08490815 0.04792208 0.064300954 -0.008862832 -0.06495603 -0.11702569 -0.069735296 -0.077148765 -0.020174982 -0.104716234 0.08798259 -0.0757924 -0.0155275455 -0.0062285275 0.045860097 0.094936095 -0.04770979 -0.020627743 -0.04005681 0.101110965 -0.023517706 0.05595579 -0.033555552
nidcr 0.12865824 0.03417139 0.014484272 -0.09931832 0.06947241 -0.052297473 0.118990034 0.100486144 0.06618273 0.057486996 0.06736002 -0.09874875 -0.13807727 -0.03364642 -0.06028622 -0.017508535 -0.04078568 0.12106435 -0.076562926 -0.01902345 0.008216238 0.031787984 0.14758708 -0.057888582 -0.009734499 -0.029738208 0.045540713 -0.014355705 0.11664507 -0.020391941
niddk 0.13595544 0.055265293 0.023843596 -0.056843642 0.11754462 -0.11474455 0.08282173 0.09554748 0.048362307 0.013583841 0.07002554 -0.11354718 -0.1014963 -0.010905847 -0.060950402 0.019778935 -0.08296384 0.10933578 -0.08177615 -0.052588988 0.036777996 0.099244304 0.15088114 -0.04271949 -0.005346673 -0.00470716 0.0903771 0.021962607 0.110228345 -0.095643476
nida 0.11474649 0.015394735 -0.021507788 -0.10140042 0.15006913 -0.11651337 0.08512096 0.07366877 0.08817792 0.010377505 0.09696407 -0.07062497 -0.11703367 0.012468043 -0.06692779 0.03940127 -0.10356108 0.122142054 -0.07401372 -0.0821163 0.05138975 0.1168864 0.14130585 -0.031223392 0.01092516 0.018430592 0.046687037 -0.0030822651 0.08167992 -0.12543283
niehs 0.116067044 -0.005069191 -0.04678777 -0.08631386 0.096895285 -0.051615503 0.09783113 0.04768552 0.10779256 -0.010113254 0.11159166 -0.093761824 -0.06991386 0.052355714 -0.06448921 0.03596287 -0.12493807 0.07746011 -0.071637616 -0.07270975 0.07977986 0.07176152 0.063557796 -0.052243896 0.011576751 0.017116753 -0.023055758 -0.026870547 0.0512858 -0.07733675
nigms 0.1272443 0.010312971 -0.046150107 -0.10179149 0.06859943 -0.07527459 0.085720226 0.13526309 0.12913908 0.0010508741 0.07722574 -0.096968874 -0.07427227 0.03763584 -0.08589073 0.089672066 -0.07293371 0.058405094 -0.082707986 -0.07702553 0.095438674 0.105112 0.108774334 -0.055014547 0.018742973 0.051805966 -0.034349248 -5.203765e-06 0.053353645 -0.07807789
nimh 0.0918798 -0.02606854 -0.08019815 -0.07865119 0.10075269 -0.11103063 0.050466895 0.07705533 0.12811865 0.028728472 0.11137993 -0.013479914 -0.06859196 0.061742313 -0.048503123 0.086655155 -0.060834713 0.082051285 -0.0718682 -0.104342476 0.0989704 0.12858641 0.04916364 -0.025104785 0.00052997994 0.09172803 -0.03334396 -0.0046285875 0.02630687 -0.077014804
nimhd 0.105817154 -0.038092278 -0.11480882 -0.034517407 0.081596345 -0.03437903 0.04710869 0.076872885 0.09592992 0.027242659 0.13079393 -0.016408194 -0.049295597 0.055146124 -0.03810545 0.066517346 -0.0377071 0.06235614 -0.12725139 -0.09340276 0.097483225 0.11263691 0.0300804 -0.06556476 0.033922072 0.05286311 -0.04633685 -0.031847555 0.03721047 -0.05041788
ninds 0.08498703 -0.023548355 -0.1332029 -0.058518063 0.071372174 -0.004162144 0.017151853 0.14148182 0.12182535 0.046116684 0.083600715 -0.020592079 -0.018868078 0.03486405 -0.04774833 0.11392078 -0.0009856032 0.0316035 -0.13319202 -0.057935573 0.089483626 0.11986572 0.018284876 -0.06634473 0.034326825 0.03563523 -0.10023539 -0.037162498 0.006183402 -0.015884273
ninr 0.091482386 -0.053566284 -0.09550292 -0.052009985 0.0808731 -0.023501169 0.022980304 0.10890826 0.12794444 0.08188712 0.10993286 0.013852926 0.016753443 0.08363922 -0.02348947 0.095167235 0.033933 0.0349565 -0.08929696 -0.05455538 0.050183143 0.12831734 0.016478607 -0.04598333 0.044254463 0.037939858 -0.09011035 -0.022912031 -0.00529782 -0.012617052
nlm 0.079854436 -0.06253834 -0.070473164 0.022285609 0.05437161 -0.004919518 0.026142957 0.08926585 0.11343256 0.036118608 0.14095624 0.054584984 0.02075765 0.080631286 -0.0037081833 0.0572968 0.10549702 0.02110979 -0.13308686 -0.044308297 0.074162565 0.13883 0.009499619 -0.0464443 0.03399772 -0.019107234 -0.09013227 -0.0073916023 -0.0019200959 -0.024250384
cc 0.056239534 -0.037133638 -0.08940803 0.032202534 0.07322935 0.039306995 0.051895503 0.08825592 0.13284111 0.08853107 0.09571092 0.04633583 0.02953729 0.05125983 0.004235432 0.08471204 0.10499998 0.0050176466 -0.12140933 0.022940371 0.06439885 0.12851202 0.011738444 -0.026777606 0.0770026 -0.0668178 -0.13152131 -0.0051728687 -0.036762647 -0.016251417
cit 0.05637101 -0.048248503 -0.056380164 0.0317002 0.04849563 0.031456776 0.08265508 0.07098461 0.12865773 0.06207617 0.036156558 0.024562756 0.071437955 0.09018539 -0.008571252 0.100789115 0.06389058 -0.0016069174 -0.06511928 0.070856825 0.03868302 0.099103376 0.04129124 -0.0155166695 0.09649648 -0.054204963 -0.10482261 -0.003580663 -0.058266215 -0.024336835
csr 0.059720542 -0.031907886 -0.00096646947 0.06201443 0.045262836 0.05484761 0.08534981 0.011340637 0.11709631 0.046684377 -0.015901065 0.0397221 0.09931589 0.13880102 -0.035184894 0.03878629 0.10735096 0.009805963 -0.048799247 0.047069773 0.0732151 0.047011938 0.03676985 -0.007381292 0.06498555 -0.07645987 -0.08427183 0.03019276 -0.04759946 -0.04014611
fic 0.05791061 -0.044026844 0.039579287 0.08132773 -0.002675738 0.03576316 0.1355199 -0.03382651 0.102534205 0.006826827 -0.07514945 0.07518847 0.037091132 0.10572862 -0.036791638 0.023708425 0.10717165 0.026279623 -0.0042587207 0.07498901 0.09064221 0.017102908 0.070506126 0.022725292 0.046154782 -0.07749319 -0.09604086 0.04523597 -0.039612666 -0.049637146
ncats 0.06732154 -0.045010116 0.06516779 0.09366878 -0.017756894 0.05893845 0.15087126 -0.0780105 0.057289064 -0.04162562 -0.0889814 0.06752323 0.009737373 0.13196068 -0.051036935 -0.020936456 0.053624697 0.029951226 0.053812984 0.123690344 0.10909383 -0.073076256 0.07480223 0.020149568 0.024402134 -0.08305411 -0.086300224 0.038439754 -0.10786927 -0.08632896
nccih 0.08408428 -0.07551923 0.07201959 0.12930936 0.039328758 0.10813375 0.094136365 -0.10078994 -0.023643479 -0.06514965 -0.12016826 0.026838344 0.0027085047 0.13305654 -0.08805007 -0.072689325 0.009267124 0.058816724 0.09878489 0.12223294 0.05949537 -0.107560016 0.11316151 0.053888984 -0.04665612 -0.116165005 -0.06787869 0.06424502 -0.08215847 -0.08858048
who 0.11832319 -0.11094481 0.14385486 0.018050963 -0.011147865 0.12427391 0.121736616 -0.13409595 -0.04143053 -0.07865085 -0.067255676 -0.08734779 -0.085803695 0.106096044 -0.084777586 -0.16025694 -0.07002042 0.1250993 0.10829257 0.06789768 0.12933901 -0.12081678 0.06504139 -0.0061969655 -0.09070547 -0.14418355 -0.079584345 0.040845174 -0.07417083 -0.080096245
we 0.08935481 -0.103864856 0.091607496 -0.12025546 -0.04089135 0.09506342 0.17293908 -0.12342556 0.062628575 -0.10836223 -0.081204966 -0.15861644 -0.08150906 0.08991599 -0.06763523 -0.13546905 -0.12543723 0.12286334 0.104127355 0.15507063 0.12714341 -0.12215396 0.12828472 -0.0021993455 -0.1250964 -0.14208238 -0.116758704 0.08667019 -0.017748654 -0.09190625
are 0.13363391 -0.077424034 0.09613956 -0.062218845 -0.07450833 0.12240493 0.14818293 -0.12552232 0.06176198 -0.12460967 -0.12324398 -0.12440113 -0.06802911 0.12822981 -0.029745437 -0.10342211 -0.1529571 0.13644463 0.08611358 0.07604028 0.113384165 -0.06661459 0.10057422 -0.056558248 -0.06918957 -0.08945417 -0.14801417 0.009252099 -0.076475196 -0.13324463
what 0.07953777 -0.11698935 0.11576941 -0.104748495 -0.09517275 0.11744979 0.09676872 -0.1216792 0.018676093 -0.076495394 -0.11732634 -0.12803943 -0.12514518 0.13844939 -0.041168883 -0.15349284 -0.07790078 0.1099303 0.044784606 0.09936288 0.13200797 -0.07009091 0.10124979 -0.034335602 -0.08646904 -0.13012633 -0.10364498 -0.0051634354 -0.01651656 -0.108379476
do 0.07183002 -0.055232793 0.09275701 -0.057167444 -0.115740575 0.07285375 0.10225569 -0.12605633 -0.01640821 -0.12169978 -0.07759042 -0.06926432 -0.089279786 0.13108791 -0.04646621 -0.08723403 -0.12094765 0.14620228 0.06978001 0.10993051 0.070350766 -0.06603415 0.094801 0.03065417 -0.12680545 -0.08262398 -0.088136755 0.0031265654 -0.046591192 -0.12783255
jobs 0.09683909 -0.120941885 0.08923077 0.05399399 -0.07619439 0.13584022 0.13444576 -0.08603235 -0.11285096 -0.08047862 -0.13095368 -0.07444368 -0.07777923 0.12130882 -0.06813434 -0.14547206 -0.11411157 0.14741093 0.068523936 0.14382659 0.08532021 -0.105391726 0.081182994 0.041603614 -0.14530855 -0.07995188 -0.1039247 0.021782745 -0.0650755 -0.10639686
visitor 0.09518307 -0.04737078 0.1253044 -0.045036044 0.10283595 0.008568356 0.13588306 -0.05893609 -0.08976747 -0.14271982 -0.122747734 0.12920031 -0.046011407 -0.0068225507 -0.12761563 -0.04372458 0.065798566 0.09349662 0.06752415 0.13553815 0.12195799 -0.10947804 0.07773566 0.06446948 -0.15571645 -0.17222923 -0.039807845 0.007472071 0.045397207 -0.07201581
frequently 0.16514051 -0.036709163 0.086642355 -0.14425534 0.14138304 -0.112519495 0.16376014 -0.07749851 0.0075196004 -0.10302767 -0.080130525 0.085133344 -0.07119409 -0.07239429 -0.1461448 -0.060301308 0.12140614 0.093580976 0.10241597 0.15631178 0.07405943 -0.061216228 -0.051819865 -0.14990099 -0.09442174 -0.08704289 0.025212873 -0.056085408 0.095622435 0.03267989
asked 0.12147376 0.020413617 0.11621295 -0.14181238 0.11268478 -0.09172088 0.09378846 -0.0063684285 0.031956576 -0.10736584 -0.06612156 0.096387215 -0.033828888 -0.1421448 -0.15169668 0.03703393 0.12942566 0.04101756 0.06351722 0.1497314 0.14581215 -0.108331054 -0.05724911 -0.07379784 -0.12945883 -0.13501324 0.009727839 -0.12101883 0.13560586 0.033747025
questions 0.08470148 0.038070563 0.11062338 -0.117321074 0.007929725 -0.13575119 0.17321147 0.0087349545 -0.00010812224 -0.05098 -0.07755986 0.09506923 -0.09916903 -0.14585558 -0.0719343 0.09633328 0.15199508 -0.023814192 0.10754251 0.11343115 0.120992586 -0.10246366 -0.14320019 -0.12932226 -0.092029266 -0.12479778 0.016890438 -0.09669836 0.07089247 0.060951516
us 0.10425662 -0.09581325 0.121629566 -0.096698485 -0.1367644 -0.118719265 0.08339501 -0.066472955 -0.07916991 -0.035658747 -0.08853921 0.15779702 -0.11753182 -0.101364926 -0.11761955 -0.033220917 0.14066534 0.011030164 0.15511456 0.16380906 0.16358976 -0.13000382 -0.09677701 -0.14287272 0.019196317 -0.16203667 0.075238146 -0.07512117 0.0068200817 -0.06856251
take 0.1238009 -0.06811355 0.08995471 0.07973182 0.060637444 0.08258064 0.11032149 -0.10632491 -0.09197526 -0.12248099 -0.14530028 0.06811265 0.023198586 0.09052656 -0.06865258 -0.09547481 -0.06382453 0.102578156 0.06935698 0.08962409 0.067383245 -0.11177793 0.07711205 0.12015653 -0.08871849 -0.13415559 -0.10840698 0.13592175 -0.09540361 -0.15040351
impact 0.10256722 -0.1666367 0.09003333 0.09107771 0.07585732 0.09673813 0.10905417 -0.13728356 -0.09381792 -0.10632756 -0.08767245 -0.0130497515 -0.11189385 0.064598985 -0.13504857 -0.073666364 -0.106648475 0.076690175 0.12902887 0.10121335 0.09403195 -0.08042539 0.13120492 0.0818264 -0.12183085 -0.10084641 -0.008994218 0.10366903 -0.09800587 -0.11489831
public 0.101398006 -0.1365427 0.1408297 0.10163665 0.005283359 0.1327445 0.11919447 -0.078089416 -0.088111855 -0.077134244 -0.103051625 0.03202428 -0.030902172 0.09711396 -0.09520835 -0.15073895 -0.13788353 0.10002632 0.121597774 0.12892756 0.12435092 -0.12291784 0.098467775 0.025837634 0.0072616087 -0.10114153 -0.037811216 -0.06393175 -0.10703479 -0.13897346
trust 0.09576155 -0.12208383 0.09739311 0.10572737 -0.06825579 0.096284166 0.11476144 -0.1182783 -0.03137514 -0.06762089 -0.076217204 -0.07005618 -0.013846755 0.06286459 -0.10897701 -0.102890864 -0.09432402 0.14004427 0.10508639 0.1165222 0.10203742 -0.065652445 0.07533013 -0.03209333 0.038827166 -0.12714185 -0.046017688 0.047257148 -0.07169102 -0.10355499
white 0.013285653 -0.014238662 0.022801194 0.015236712 -0.00554079 0.011467069 0.023541266 -0.020128123 -0.015316324 -0.016200999 -0.022606727 -0.00028078037 -0.0014869889 0.019939557 -0.012291204 -0.020313669 -0.017014064 0.015958851 0.013441489 0.024664253 0.019429753 -0.015555667 0.01634488 0.013682693 -0.009570075 -0.018709773 -0.014382593 0.011942913 -0.012085003 -0.019397829
house 0.018844746 -0.013062149 0.02596165 0.017216867 -0.009222681 0.012183145 0.024883427 -0.025322117 -0.014599865 -0.017970916 -0.024517326 0.009282338 -0.0076885484 0.015337138 -0.019322107 -0.021756422 -0.016517673 0.014934588 0.024510609 0.026809825 0.017455988 -0.023472318 0.01785816 0.006918211 -0.0104758525 -0.018681837 -0.013918536 0.00023924373 -0.021461884 -0.020112013
initiative 0.08324308 -0.07797897 0.09604458 0.07815349 0.007828638 0.05490231 0.05442921 -0.07083054 -0.085715264 -0.06459819 -0.08940037 0.003784542 -0.022709146 0.050272644 -0.08662275 -0.07955269 -0.07210522 0.062543966 0.087127954 0.061648667 0.0811911 -0.075249165 0.09189805 0.048334736 -0.03597943 -0.08663973 -0.06779926 0.04185912 -0.07226907 -0.08892395
on 0.08247965 -0.07924242 0.0822151 0.038699355 0.042529035 0.053369764 0.04710901 -0.091007076 -0.089939974 -0.09159022 -0.0690411 -0.043132953 -0.044946924 0.09596649 -0.07121643 -0.05798556 -0.046555195 0.056471676 0.085168034 0.09623703 0.05796646 -0.0874035 0.091299325 0.06341094 -0.048998445 -0.10169138 -0.08680999 0.044037513 -0.08867232 -0.09704489
women 0.018843556 -0.015876869 0.01862854 0.013501927 0.00027191069 0.018576724 0.018728808 -0.013862188 -0.009135611 -0.019232571 -0.013995947 0.0050162915 -0.0073595517 0.014092058 -0.01259279 -0.015580884 -0.017700044 0.015912393 0.019104164 0.013961033 0.014361805 -0.01633582 0.016603773 0.013168064 -0.009907363 -0.011508853 -0.008350636 -0.00032603086 -0.019224567 -0.018191323
s 0.11034033 -0.06572452 0.08867699 0.0716973 -0.0071887495 0.10719477 0.13469885 -0.10770066 -0.067362845 -0.10726805 -0.09963579 0.04047803 -0.036850505 0.103987984 -0.086154714 -0.11656926 -0.06330669 0.07614951 0.13177802 0.10857272 0.114018425 -0.13225849 0.12797634 0.06982817 -0.06599495 -0.08966889 -0.09054914 0.06580036 -0.10118644 -0.085926294
leaders 0.0138465455 -0.010761442 0.0131543605 0.010679857 0.0039646043 0.010017399 0.010867727 -0.01542648 -0.011343073 -0.015297719 -0.014626609 -0.010750937 -0.0021029261 0.015105188 -0.012703209 -0.016155323 -0.010153169 0.011168952 0.014808465 0.015937824 0.014152309 -0.008549577 0.014030723 0.0013887556 -0.00280201 -0.013028162 -0.011571948 0.012732087 -0.012156749 -0.015374983
discuss 0.008019333 -0.013166447 0.0099538565 0.012417967 -0.0004973788 0.010534902 0.01159547 -0.012730988 -0.015681228 -0.0143154375 -0.011226215 0.0014907003 -0.004793283 0.013859367 -0.013644878 -0.011466578 -0.0098599065 0.015181872 0.012167735 0.013862378 0.01061834 -0.011208059 0.014079695 0.0014496632 -0.010664573 -0.015330565 -0.008991374 0.0019501962 -0.010483385 -0.014391721
progress 0.0057680816 -0.006624395 0.0063576014 0.0064479983 -0.0053540203 0.0061620474 0.006178555 -0.007440899 -0.007818455 -0.009124236 -0.006323094 0.005437914 0.0006125697 0.008164936 -0.007540996 -0.008621743 -0.004822027 0.007475529 0.009708855 0.007532202 0.008692205 -0.008661747 0.007478284 0.00011366482 -0.0034555737 -0.008315812 -0.003474893 -0.0031169367 -0.0071005984 -0.009803227
priorities 0.006830632 -0.0077342084 0.012968126 0.009489738 -0.011575695 0.012267094 0.012228041 -0.014046343 -0.014386648 -0.016361646 -0.013837574 0.011512064 0.0006326223 0.012970785 -0.010977774 -0.010978678 -0.010723041 0.012932078 0.014414401 0.014103495 0.015238798 -0.014014973 0.011725779 -0.00061354984 -0.010305004 -0.013153065 -0.0040181684 0.00036183588 -0.009737292 -0.012890744
workshop 0.012461334 -0.008635609 0.008881807 0.011502501 0.004797417 -0.0015425712 0.00045794965 -0.012630995 -0.0035936183 -0.012359565 -0.011463278 0.0082499655 -0.008432307 -0.0019048267 -0.010812072 -0.008373647 0.0012383036 0.009728027 0.010470921 0.012405357 0.0129815675 -0.009410409 0.012779916 0.008879235 0.0040295697 -0.0076897815 7.361478e-05 -0.0045136446 -0.01022927 -0.009454572
learn 0.08681144 -0.06520061 0.09339289 0.106301546 -0.006384908 0.046157032 0.09536467 -0.07789644 -0.07866282 -0.09792237 -0.08480005 0.090785965 -0.08042679 0.07624408 -0.10443345 -0.09751368 -0.024183089 0.052873738 0.07159472 0.11749396 0.114613734 -0.12113282 0.110610425 0.09010686 0.011906894 -0.07299165 -0.07252606 0.028317712 -0.07424696 -0.1010497
caregiving 0.049336273 -0.030165933 0.040255766 0.036103774 -0.002877675 0.018478101 0.0372839 -0.052461896 -0.03865884 -0.05319463 -0.05109949 0.018799389 -0.017079212 0.03549855 -0.048303757 -0.037050795 -0.02470993 0.045232013 0.045075126 0.048283443 0.045117397 -0.03009681 0.033808324 0.020434497 -0.020074807 -0.04854468 -0.025628496 0.018903943 -0.04698673 -0.041478537
dementia 0.031631947 -0.026684776 0.029222457 0.030983387 -0.012195529 0.021247093 0.023241652 -0.027890729 -0.026832484 -0.03068361 -0.032780774 0.014003769 -0.01589249 0.02883848 -0.021845298 -0.025523506 -0.02441739 0.024920253 0.03014444 0.032205384 0.028195884 -0.026252829 0.033212572 0.011378063 -0.013849166 -0.027911793 -0.022476932 0.017827908 -0.034378484 -0.032886002
millions 0.005660651 -0.010918228 0.010559011 0.01266416 -0.0008250401 0.009115359 0.009295527 -0.01408657 -0.014097028 -0.013937188 -0.013312996 0.014021361 -0.0033272242 0.013720502 -0.016967822 -0.014797296 -0.010788023 0.01723451 0.014310781 0.015314546 0.0118607525 -0.014904753 0.015645914 0.0019694825 -0.0072760037 -0.0135462545 -0.005411126 0.00404246 -0.014212827 -0.01171161
people 0.027151959 -0.018947178 0.028438272 0.02540748 -0.008370985 0.016052142 0.033454612 -0.022087663 -0.016283639 -0.02025494 -0.02905912 0.007132049 -0.016636316 0.014698611 -0.03072425 -0.023895843 -0.020015521 0.030733552 0.023290077 0.032237697 0.021257292 -0.026576642 0.014313039 0.014471068 -0.015401663 -0.032004192 -0.007563778 0.008394168 -0.021854294 -0.03317242
someone 0.0144821005 -0.009449499 0.010684997 0.006491581 -0.0063672117 0.00254543 0.018625574 -0.011884882 -0.0071524563 -0.01161039 -0.013331862 0.00026149032 -0.015983118 0.00839835 -0.013036345 -0.013855959 -0.0031393648 0.011749042 0.017480554 0.016088713 0.016572788 -0.011602261 0.0039887754 0.0061395043 -0.0032753462 -0.015660757 -0.0002512532 -0.00064167427 -0.008221215 -0.015840622
with 0.12572637 -0.10063281 0.10777883 -0.016431022 -0.0928662 -0.009087595 0.10294118 -0.06508078 -0.09432965 -0.054586146 -0.0684533 0.115561806 -0.07455563 -0.0067293034 -0.114184216 -0.072668485 0.04728013 0.040732495 0.1102722 0.13483168 0.10711346 -0.08803756 0.021439178 -0.048025426 -0.018688936 -0.067838036 -0.007944186 -0.0020243383 -0.04544901 -0.067819566
alzheimer 0.02357442 -0.024154264 0.027108066 0.015248057 -0.017849525 0.014145667 0.018784102 -0.016746696 -0.020949086 -0.022112003 -0.020879107 0.01702396 -0.011454417 0.015778936 -0.015977494 -0.02302985 -0.014302184 0.014459452 0.021971563 0.028454013 0.028539278 -0.029612275 0.020110808 0.015430988 -0.0063447277 -0.027812429 -0.012829545 0.012585924 -0.02328629 -0.017246773
disease 0.05319964 -0.06961202 0.08422252 0.07435526 -0.027693294 0.07000687 0.05724112 -0.09388872 -0.07755548 -0.06482602 -0.08107497 0.041873608 -0.04033317 0.07823227 -0.084485404 -0.085248716 -0.060462438 0.07166457 0.09734388 0.07800495 0.053134166 -0.07116095 0.06355088 0.06748546 -0.023475368 -0.052665092 -0.0550176 0.009340816 -0.07447517 -0.073944554
or 0.039254412 -0.031715527 0.03966056 0.029899182 -0.0071275365 0.033184167 0.025175296 -0.035782833 -0.024172781 -0.031684346 -0.035256393 0.0027560191 -0.015182984 0.037205115 -0.0282192 -0.028622232 -0.02975763 0.021730402 0.042601906 0.038449533 0.03520793 -0.037571073 0.040180966 0.018617515 -0.020442257 -0.040223416 -0.02783268 0.011971401 -0.037924442 -0.041019287
a 0.13333613 -0.09866564 0.11120054 0.09738489 -0.023356114 0.08446437 0.10362929 -0.08796791 -0.10449442 -0.113874346 -0.11960329 0.0066745398 -0.062291175 0.11912816 -0.10666324 -0.1549828 -0.08278936 0.10493921 0.10348336 0.14443511 0.12275303 -0.14070845 0.0897558 0.061436776 -0.068335265 -0.09592102 -0.098633 0.056864176 -0.13160913 -0.13727318
related 0.06176385 -0.03270171 0.07469395 0.06484466 0.0038434647 0.04319314 0.053503606 -0.058618102 -0.054932296 -0.046202473 -0.07283364 0.013153238 -0.014966735 0.06781318 -0.06245205 -0.086596675 -0.05620637 0.044107538 0.068725 0.081752434 0.07494137 -0.060352515 0.060419347 0.0417222 -0.018700039 -0.07390296 -0.039500788 0.024541145 -0.06621912 -0.04526477
. 0.119545214 -0.10131984 0.13313678 0.15074869 -0.018967165 0.05772069 0.15196837 -0.14158216 -0.1029237 -0.18422323 -0.14856054 0.0758553 -0.06581577 0.089288786 -0.10549765 -0.108995214 -0.14550905 0.10771173 0.12656343 0.13594456 0.11829279 -0.1683845 0.15222152 0.07288025 -0.11884386 -0.17961273 -0.13286687 0.084906824 -0.115914665 -0.16722615
caregivers 0.024298754 -0.007880957 0.022392161 0.009228484 -0.005877101 0.017921774 0.02139599 -0.013563539 -0.01212766 -0.019514464 -0.018691633 -0.000543691 -0.015085248 0.020961866 -0.01610626 -0.021707093 -0.01725558 0.020250717 0.027524319 0.027489074 0.024720695 -0.01968186 0.023572542 0.023839785 -0.0073954184 -0.025587127 -0.012289375 0.0017992496 -0.023845376 -0.024687836
context 0.015644647 -0.015380404 0.017708786 0.004499947 -0.015042316 0.01949292 0.01637863 -0.022729129 -0.009293867 -0.01680699 -0.018667417 -0.010411921 -0.012185377 0.021972198 -0.01566952 -0.02343643 -0.018811915 0.019431917 0.010533432 0.017905958 0.01637608 -0.013372302 0.0138912285 0.0021891796 -0.008376023 -0.014572997 -0.018989151 0.003169163 -0.010995782 -0.018114302
can 0.035535593 -0.04013986 0.027972085 0.009199037 -0.031657692 0.038746204 0.04008406 -0.05748954 -0.018256102 -0.03196361 -0.03919764 -0.023776213 -0.016825272 0.037351355 -0.024238495 -0.046298612 -0.042937074 0.05187734 0.036653515 0.044559598 0.04956516 -0.040219687 0.045957375 0.007525099 -0.017251693 -0.04823241 -0.03365077 0.0012193732 -0.028003858 -0.0500596
slow 0.010714446 -0.009789661 0.010898049 -0.011566214 -0.0069356714 0.0141903255 0.012000463 -0.014549259 0.0040003867 -0.010491291 -0.010049313 -0.015680308 -0.010930359 0.015565386 -0.0028063962 -0.013054743 -0.012121579 0.013912918 0.008036776 0.010158813 0.01209164 -0.0072099455 0.010643844 -0.0002536639 -0.011050097 -0.012093725 -0.0077191563 0.000523813 -0.0014070639 -0.013358613
aging 0.013851662 -0.0072699925 0.017398309 -0.004891595 -0.007978464 0.018812748 0.016678886 -0.01733423 0.0028235882 -0.014590174 -0.012899736 -0.007123836 -0.011461944 0.022225393 -0.010003487 -0.022223528 -0.011662139 0.016208304 0.0060916254 0.010123822 0.013331318 -0.015863754 0.0128222825 0.007849425 -0.008647943 -0.018222084 -0.015267324 -0.00072668924 -0.0053341547 -0.0155335525
happens 0.011987247 -0.007329975 0.010930464 -0.003546937 -0.0064679496 0.0094766775 0.016474081 -0.014201023 -0.0018692942 -0.010558454 -0.009666788 -0.0066889715 -0.012982967 0.014753903 -0.01120508 -0.01151752 -0.013122983 0.011244544 0.011067746 0.012746667 0.007167185 -0.008237911 0.012203028 0.007920719 -0.012370758 -0.009891339 -0.012104581 -0.00012678481 -0.008067874 -0.014472403
our 0.03523926 -0.036208265 0.047339793 0.035982378 -0.00639594 0.03475583 0.04335324 -0.049886834 -0.03297321 -0.03284342 -0.030236231 0.012496165 -0.032886278 0.0360584 -0.04903781 -0.03408157 -0.034698103 0.043941047 0.03747444 0.030632662 0.038082164 -0.04411208 0.04855226 0.02423244 -0.0358766 -0.02934701 -0.033290736 0.030098436 -0.052077953 -0.043125242
bodies 0.015831562 -0.012500137 0.015014982 0.0005954246 -0.009300579 0.017289856 0.013826055 -0.016137697 -0.006786443 -0.014077801 -0.014295799 -0.0055002766 -0.012937241 0.01898926 -0.011627158 -0.015693633 -0.013497829 0.017438276 0.013455246 0.014048422 0.014950616 -0.007883756 0.012007778 0.009452672 -0.012954743 -0.011631876 -0.011024205 0.0015201481 -0.010735219 -0.01543635
as 0.055349097 -0.06036357 0.072668806 0.06350808 -0.014707419 0.07638606 0.0527476 -0.061062362 -0.036071945 -0.05472943 -0.08091791 0.014424923 -0.0144434 0.05943584 -0.07843334 -0.079205394 -0.059808187 0.049408637 0.06319593 0.06132176 0.077294655 -0.061583072 0.06644947 0.05305235 -0.02453707 -0.071218826 -0.033063423 0.01771421 -0.04729893 -0.075762205
age 0.014227128 -0.0110955015 0.015182526 -0.0041072196 -0.0093782535 0.016440064 0.016866013 -0.022710575 -0.0025307732 -0.020506982 -0.01636023 -0.006325984 -0.01119074 0.02021086 -0.014682283 -0.016116805 -0.016718948 0.02093733 0.017513001 0.01094318 0.020238396 -0.013328549 0.020075105 -0.002473813 -0.014354721 -0.019674815 -0.0116713885 -0.001856643 -0.010885297 -0.017143058
be 0.028658548 -0.023166385 0.02544604 0.015631953 0.0003413214 0.022367101 0.03170342 -0.02869165 -0.017553125 -0.029394662 -0.02897675 -0.013982252 -0.01047762 0.023897957 -0.02427867 -0.03178074 -0.021866897 0.025273344 0.02659589 0.03568361 0.028431615 -0.02098626 0.0212573 0.0053140665 -0.019127104 -0.021626985 -0.023711005 0.017196685 -0.014981243 -0.033753444
done 0.007817733 -0.005737537 0.007681292 0.006066325 -0.0030438148 0.009774081 0.012448636 -0.007840133 -0.0055904174 -0.0063187694 -0.008870594 0.005490336 -0.0057578157 0.007263606 -0.0092828665 -0.01032903 -0.0039029175 0.008776281 0.008943282 0.010833719 0.010850158 -0.010022678 0.011569933 0.0037709563 -0.0028197896 -0.0069836145 -0.0058786953 0.004009075 -0.011242739 -0.013499344
it 0.05337037 -0.031844284 0.046620533 0.045921285 -0.022509193 0.029258745 0.039797056 -0.054487098 -0.029659087 -0.059097167 -0.049737033 0.028125407 -0.02508648 0.03486574 -0.040197626 -0.052217394 -0.02318882 0.05050028 0.03771571 0.038678955 0.044489834 -0.059167 0.043332696 0.03092434 -0.0076134917 -0.046109896 -0.033543415 0.0019812419 -0.04502904 -0.052052654
diabetes 0.030749224 -0.02168169 0.021554172 0.04013039 -0.003931997 0.021740356 0.02119611 -0.038152963 -0.009716453 -0.03854205 -0.02719452 0.018669035 -0.016172316 0.022112083 -0.043616906 -0.032551575 -0.010196032 0.024916122 0.02967435 0.03309714 0.037235476 -0.036932588 0.036051396 0.032326628 0.0039137867 -0.033744905 -0.0133361975 -0.0104361875 -0.02771987 -0.026625087
month 0.019018615 -0.018838372 0.019925175 0.021660471 -0.0009142613 0.022184413 0.016545784 -0.019539649 -0.015061664 -0.029603114 -0.02179294 0.011676878 -0.009907555 0.018728731 -0.022608075 -0.015378742 -0.011911348 0.019001096 0.021894231 0.01927229 0.022655115 -0.02842968 0.019885436 0.009684939 -0.005927702 -0.01409058 -0.018098544 0.0006597741 -0.022019617 -0.025767764
manage 0.005997703 -0.010258831 0.0044268295 0.0058628498 -0.0047323117 0.008279914 0.0033188844 -0.010280437 -0.00015619196 -0.011204311 -0.008628009 0.0020454726 -0.0041944915 0.005431645 -0.0077679367 -0.0052640215 -0.0013614283 0.008358062 0.0061208266 0.007662367 0.00780541 -0.011612243 0.009187855 0.006132176 0.0021355352 -0.008988219 -0.0051998706 -0.0060254186 -0.0063589 -0.009872293
soon 0.005255672 -0.0042202813 0.0076577547 0.0055651036 -0.0022079598 0.005393411 0.0053026704 -0.0056494316 -0.003530215 -0.004833084 -0.00812327 0.001345971 -0.0014633277 0.004676509 -0.008518264 -0.0046980935 -0.0026347504 0.005683314 0.006906428 0.005261512 0.0058620335 -0.008095268 0.0078822 0.002848059 -0.001072355 -0.005198169 -0.0032033115 0.00047852335 -0.0064603137 -0.004454593
possible 0.0071370983 -0.005473406 0.0102120275 0.009405793 -0.005559526 0.0071499287 0.008612145 -0.007551053 -0.0047279177 -0.0049848757 -0.008298932 0.0060408935 -0.002355688 0.010791444 -0.012480645 -0.010695165 -0.008133908 0.005278389 0.0051998245 0.0042831996 0.011505956 -0.011826252 0.010172242 0.011431958 0.002437943 -0.0092498055 -0.0049874424 -5.9701764e-05 -0.009160779 -0.009463232
stay 0.017422285 -0.0187514 0.016954595 0.015481904 -0.0031518054 0.022750119 0.020365475 -0.018943341 -0.0152244195 -0.018781705 -0.018283792 0.009872455 -0.012231354 0.016474532 -0.02223732 -0.021295754 -0.01735999 0.015617031 0.017980574 0.013998804 0.014730846 -0.019916596 0.02002348 0.021331245 -0.005145336 -0.019923547 -0.012953234 0.0017620077 -0.017433448 -0.016407112
healthier 0.020016307 -0.015797134 0.016476626 0.021016065 -0.01677724 0.01290126 0.018213222 -0.01224785 -0.019470569 -0.019897016 -0.018642694 0.014074153 -0.008540364 0.028042149 -0.020979254 -0.023055807 -0.015050316 0.017196974 0.021510016 0.015753739 0.018736593 -0.017626101 0.020873288 0.011180633 -0.006600088 -0.02040184 -0.01270077 0.004207328 -0.0148999095 -0.018918648
longer 0.016538812 -0.0099343825 0.0149342865 0.011957146 -0.00680366 0.0073669967 0.015275637 -0.010657295 -0.012863364 -0.011722897 -0.01202853 0.0053580324 -0.0062032524 0.014290082 -0.01374094 -0.009766078 -0.010420127 0.012908451 0.015472526 0.010492489 0.013837873 -0.00864225 0.0151382685 0.0121247955 -0.006442814 -0.012580801 -0.009345602 0.0037209247 -0.015469027 -0.0109915715
obssr 0.010727818 -0.008109722 0.0041292175 0.006681709 0.0037816067 -0.0033345013 -0.0011877501 -0.012520693 -0.0031911733 -0.009172969 -0.009518975 0.009035966 -0.009561112 -0.002417648 -0.009799864 -0.0073150685 0.0023323155 0.008249614 0.011235206 0.012090719 0.009097495 -0.011029806 0.008220609 0.009890335 0.0036394417 -0.005636762 0.0012127807 -0.0050427164 -0.008227744 -0.009901278
strategic 0.007233013 -0.004994565 0.0016041093 0.0050537926 0.0052878205 -0.0037909267 -0.004458007 -0.006880607 -0.0037051332 -0.0053306585 -0.00466869 0.006125041 -0.006414222 -0.0054558516 -0.005153304 -0.003698243 0.003820562 0.0045481464 0.0065539703 0.007718485 0.006488301 -0.0068592513 0.0055045015 0.006633498 0.0063454537 -0.0015528725 0.002797903 -0.0050919307 -0.0040768753 -0.004579497
plan 0.00026754226 -0.000387953 0.0009969828 0.00012737077 0.00027357347 -3.7930575e-05 -0.0002830879 -0.0008381477 -0.00041458453 -0.00076392235 0.00015946498 2.839503e-05 -0.0009268273 0.00021928122 -0.00060765346 -7.934996e-05 0.00032052168 0.00075573183 0.0007306698 0.00084289024 0.00091004383 -0.0005658284 0.0014378857 0.0008802528 -0.00095783884 -0.0006855171 0.000678467 -0.0008183461 -0.0012669994 -0.0007375647
2025 0.0008712773 -0.0012755288 0.0017425139 0.00090867816 0.00018014858 0.0005302142 0.00043637873 -0.0006157854 -0.00017853543 -0.0011747886 -0.0006606728 0.00078288006 -0.00095022464 0.00016442804 -0.0011275908 -0.00069335423 -0.0006506715 0.00089909893 0.0012569245 0.0014714522 0.0007881633 -0.0012163424 0.001185667 0.00059466035 -0.0011908901 -0.0010004558 -0.00013841318 0.00019788172 -0.0007413423 -0.0013621823
2029 0.0023389263 -0.0016081757 0.0037586521 0.002270423 -0.00042841258 0.0018144808 0.0021857289 -0.0023074264 -0.003553204 -0.0017951104 -0.0032068454 0.0002917939 0.0003364181 0.0016597735 -0.0023648003 -0.0020222678 -0.0012688048 0.0028104712 0.00301564 0.002623539 0.0024797192 -0.0030762034 0.0034638145 0.0010158654 -0.00037758276 -0.0025207545 -0.0009516351 0.0010848334 -0.0011860367 -0.0018424161
accelerating 0.02297897 -0.018505849 0.01943684 0.0118163 -0.0074311025 0.016896088 0.013488825 -0.012000404 -0.015741536 -0.0165838 -0.013468515 0.0045820912 -0.014170175 0.020416891 -0.018275226 -0.01579784 -0.012083619 0.0175889 0.020906232 0.019663353 0.013412826 -0.019901274 0.020751914 0.013582229 -0.017536627 -0.021733074 -0.0046132943 0.0078310985 -0.01475709 -0.014132441
scientific 0.04743593 -0.056672487 0.056776877 0.04225117 -0.013345586 0.041018408 0.048676386 -0.057762273 -0.034772296 -0.048845667 -0.063101426 0.031259343 -0.030502187 0.053679764 -0.070423774 -0.05669292 -0.044505265 0.055828672 0.054841522 0.06664778 0.07216287 -0.050549135 0.05444225 0.036010664 -0.033882927 -0.066978395 -0.032154378 0.01435667 -0.04339332 -0.05346889
through 0.047258556 -0.034322783 0.04352212 0.031219881 0.0045049344 0.021598924 0.034193434 -0.045087654 -0.03499007 -0.031728417 -0.04174622 -0.01033625 -0.010533678 0.034990977 -0.035582494 -0.039906137 -0.027206488 0.035249036 0.036846172 0.039272215 0.03884752 -0.04046123 0.040925756 0.010198884 -0.008467224 -0.02126417 -0.020634696 0.02862712 -0.045249272 -0.04218384
integration 0.010527615 -0.012494749 0.017540513 0.015370617 0.007041646 0.006809814 0.014251448 -0.01004412 -0.0137291495 -0.012488881 -0.013016673 0.011212449 -0.00353449 0.010706916 -0.015547944 -0.011905519 -0.010855891 0.014253912 0.015758362 0.014613899 0.009021329 -0.014823058 0.015904086 0.016856095 -0.0120860925 -0.01123304 -0.007680872 0.013676846 -0.016625447 -0.013143723
behavioral 0.007849393 -0.010592267 0.016806236 0.012162709 0.00094787765 0.012636839 0.0023958292 -0.017871112 -0.014930381 -0.015473576 -0.010614049 0.012191684 -0.0058380794 0.012592408 -0.014459627 -0.013512188 -0.008141662 0.012043902 0.01869265 0.01962638 0.018343339 -0.020596767 0.015988413 0.00658646 -0.0107542435 -0.014003096 -0.005566934 0.0020090358 -0.017860457 -0.0184052
sciences 0.02788055 -0.016092995 0.010311492 0.012768408 0.005537851 0.0056541907 0.0071898997 -0.021453362 -0.005502677 -0.025507988 -0.008818714 0.015573578 -0.012352685 0.014635835 -0.023699936 -0.0076074176 0.0018770203 0.016533554 0.02437842 0.021480296 0.03068168 -0.020536527 0.020692317 0.011214279 0.0038618252 -0.015997993 -0.011193341 -0.0071006278 -0.02379386 -0.033202834
weight 0.01082112 -0.008040998 0.016988229 0.009152123 0.0061207693 0.007265101 0.012302735 -0.009406962 -0.013463495 -0.012968047 -0.009669762 -0.0032333876 -0.004360795 0.012775352 -0.009283832 -0.010314103 -0.009792199 0.009230815 0.013875145 0.008643306 0.0058303284 -0.0067166192 0.011848685 0.016042264 -0.00984994 -0.008195199 -0.013918057 0.015224279 -0.013744824 -0.011474325
loss 0.003868111 0.0011103422 0.006619156 0.0058021676 0.0013999318 0.0032905745 0.0032321552 -0.0052436166 -0.0074867825 -0.00564294 -0.00654596 -0.007139095 -0.005811329 0.006244648 -0.005974705 -0.003747543 -0.005305699 0.0052642263 0.008326647 0.0036954873 0.0042891153 -0.0014309596 0.005717345 0.007116004 -0.0038735939 -0.0045076506 -0.006663272 0.006282803 -0.008218745 -0.005723346
surgery 0.0010393695 -0.0009962346 0.00066153216 0.0010390645 -0.0009930028 0.001095904 0.0010436024 -0.0022647337 -0.0013151572 -0.0017534634 -0.0004934767 0.00027291314 -0.0006954102 0.00097622455 -0.0004662737 -0.00059081835 -0.0008066002 0.0005514475 0.0014335804 0.0019060154 0.00046419835 -0.0012586644 0.0013531657 0.00085563684 -0.0010992176 -0.0013431773 -0.000570282 0.00018803119 -0.0010643431 -0.0008679477
young 0.0056263926 -0.004543373 0.0049274187 0.00083766103 -0.0038386656 -0.0022971462 0.0029690056 -0.0049097 -0.0057888846 -0.0017902403 -0.0037401007 0.0035180773 -0.0021341913 -0.0009917506 -0.005948568 -0.0031550934 0.0026847564 0.0034529543 0.005599231 0.0075143944 0.00508039 -0.0074802754 0.0013571485 -0.00075167516 0.0012906226 -0.0058321324 -0.0011951235 0.0008467714 -0.0025329182 -0.0025103793
adults 0.02117545 -0.019179737 0.017382009 0.011710757 -0.003048612 0.007461983 0.012167698 -0.016932167 -0.02091326 -0.014016101 -0.011124613 0.0012894422 -0.0144442525 0.010135124 -0.017115077 -0.015530937 -0.0077310973 0.0123445075 0.019904844 0.021456378 0.016950857 -0.0132026095 0.016250893 0.008097889 -0.0106420405 -0.023459805 -0.01009179 0.009395473 -0.010134539 -0.014475383
severe 0.006895303 -0.0127007775 0.013725036 0.012309194 -0.0035173893 0.0018152903 0.0096742995 -0.013556601 -0.01427214 -0.011337385 -0.013642024 0.010958673 -0.00680338 0.0043418966 -0.016170964 -0.008079372 -0.0069173207 0.011557229 0.014826746 0.016567998 0.01624156 -0.016543005 0.0091924425 0.0053852787 -0.0048192926 -0.013373141 -0.0034662262 0.007340613 -0.012095971 -0.009717246
obesity 0.0031312048 -0.004231689 0.0024663603 0.001427761 -0.0038845132 -0.0023434237 0.0038317686 -0.005085581 -0.004576647 -0.0020578525 -0.0026694352 0.0043853917 -0.0020913498 -0.0002120036 -0.0037760953 -0.002321754 0.0028353136 0.0025809712 0.0066732536 0.006347685 0.005245268 -0.006692842 0.00048815797 -0.0010054524 0.0015517297 -0.007019236 -0.0007663913 0.0007466429 -0.0014653936 -0.002940451
saw 0.0016203378 -0.0020233062 0.0013194362 0.0014009415 -0.0002795646 0.0012567105 0.0019251388 -0.0021515389 -0.002064824 -0.001169002 -0.0011982848 0.0009309908 -0.0003729954 0.00085426355 -0.0019673023 -0.0011160421 -0.0010486278 0.0006724912 0.0013994414 0.002424517 0.0010333691 -0.0021359483 0.0022648997 0.00047177915 -0.001231416 -0.0018323725 -0.0010727154 0.0011423694 -0.0016859983 -0.0022533375
long 0.008623182 -0.014251116 0.01640922 0.008660302 0.0039743283 0.0054847617 0.013935949 -0.010477018 -0.01330496 -0.012164527 -0.012828426 0.0061741676 0.0029411372 0.011435924 -0.009368955 -0.010732913 -0.0081993565 0.0068007223 0.013205758 0.012271202 0.007843969 -0.013796583 0.012737438 0.009560709 -0.005821244 -0.009769878 -0.008922789 0.0070022056 -0.010592608 -0.011650667
term 0.020440472 -0.02536526 0.029020552 0.024389818 -0.0017411587 0.0155789135 0.025911517 -0.015288979 -0.023650175 -0.020623751 -0.021900807 0.018417433 -0.009814381 0.025031896 -0.02264082 -0.02221517 -0.020632429 0.022274293 0.020615505 0.02368474 0.015485013 -0.017578566 0.027245857 0.019473968 -0.021247704 -0.017603287 -0.01202133 0.014390548 -0.020358654 -0.018570973
benefits 0.009429466 -0.009142676 0.010150906 0.0068726647 -0.005975379 0.0055706687 0.008367394 -0.008145439 -0.0072314856 -0.008132429 -0.0075840796 0.0031838557 -0.006671694 0.008931983 -0.008578404 -0.0074190963 -0.006075044 0.0039058675 0.009394479 0.0062053474 0.0078763515 -0.0070414757 0.009295408 0.008148691 -0.0069601536 -0.0063907094 -0.0059583033 0.0040533724 -0.005635387 -0.0064833984
scientists 0.034461986 -0.03583745 0.04921255 0.037026275 -0.016401077 0.036297824 0.044977415 -0.030396981 -0.042785283 -0.049850766 -0.04365679 0.004441081 -0.0033983258 0.05305886 -0.04726165 -0.042200986 -0.040539164 0.03661868 0.028197093 0.05440342 0.04222562 -0.043655854 0.046672005 0.007651529 -0.010243067 -0.040664367 -0.032422002 0.014174546 -0.046926938 -0.045728263
uncover 0.02098138 -0.013328677 0.024974313 0.014553612 -0.0032633296 0.019139418 0.012877203 -0.01564926 -0.0202339 -0.02279974 -0.018326772 -0.0017153417 -0.0041206083 0.023690522 -0.017489377 -0.01978765 -0.005772668 0.018842215 0.013793268 0.022433141 0.023453249 -0.024846891 0.025793592 0.01682781 0.0027593581 -0.024616431 -0.019949581 -0.0008712909 -0.024304854 -0.026770717
distinct 0.0032028754 -0.006702409 0.008444313 0.010515506 0.002062488 0.0063463156 0.007474832 -0.0062810676 -0.0073849824 -0.0076427246 -0.0066702133 0.0063261422 -0.004429197 0.0076692384 -0.010382475 -0.0074772416 -0.010015101 0.009993266 0.0074931146 0.006832763 0.008494171 -0.007519692 0.011129676 0.0077371267 -0.007179834 -0.006450369 -0.0018746309 0.006146969 -0.008940203 -0.006779051
phases 0.005048943 -0.010713258 0.014085644 0.01083241 0.0025695837 0.0007790125 0.008233574 -0.009606451 -0.0065748175 -0.008339183 -0.011391137 0.009289078 -0.008874671 0.007854877 -0.010948663 -0.009684315 -0.0058166464 0.0123012625 0.00991472 0.009872949 0.010889937 -0.010788539 0.013256493 0.005570346 -0.009354977 -0.0069397613 0.0017734512 0.004352746 -0.011966014 -0.009477685
harm 0.015955996 -0.016478794 0.020458275 0.014104443 0.00016613308 0.0066224993 0.013616838 -0.014355444 -0.013088696 -0.01265305 -0.014546553 0.010014924 -0.01568103 0.013738205 -0.019971587 -0.015932303 -0.0123648625 0.014990815 0.017071592 0.018109985 0.018925527 -0.016719697 0.015581855 0.014350153 -0.016168313 -0.012056443 -0.003474902 0.007598074 -0.019418843 -0.010386224
pediatric 0.01974672 -0.013135123 0.0136015555 0.008181969 -0.009753356 0.011916766 0.0138920685 -0.01022616 -0.01351932 -0.010548884 -0.01190728 0.0053521604 -0.008314815 0.016229734 -0.013002118 -0.012362495 -0.008431339 0.009627756 0.017551623 0.008903811 0.011957822 -0.010946917 0.01340468 0.013895087 -0.0101916455 -0.01580305 -0.011781173 0.009636511 -0.013550889 -0.006708544
emergencies 0.0121637145 -0.010144897 0.010044182 0.008934838 -0.009005317 0.009256798 0.009325533 -0.010830613 -0.008359709 -0.0066888295 -0.013775522 0.0064861663 -0.0037567245 0.016733464 -0.011329959 -0.013534175 -0.009432571 0.006982663 0.009019348 0.010770953 0.013403201 -0.013930055 0.014150398 0.012028492 -0.001338287 -0.015465289 -0.0089690415 0.0014336538 -0.011115266 -0.011550013
adherence 0.004826938 -0.0027630483 0.005692014 0.006281103 -0.005445313 0.005256575 0.005260208 -0.0058280234 -0.0028927943 -0.006165111 -0.0070339795 0.005254786 0.000116027295 0.0063425316 -0.009826825 -0.009315263 -0.002969241 0.0031483662 0.003693407 0.0042226044 0.008063714 -0.008480845 0.0074498397 0.007757065 0.0035129902 -0.008223849 -0.0057793735 -0.002171864 -0.004769316 -0.0069065774
er 0.002669619 -0.0031652343 0.006616979 0.007560546 -0.004910386 0.006362846 0.005777844 -0.0052036275 -0.0041546547 -0.002787873 -0.005784641 0.0040737772 -0.000120398894 0.009823991 -0.007195132 -0.009799825 -0.0024820284 0.0042041983 0.0042148815 0.0048412075 0.008756137 -0.007507734 0.0076028635 0.00793946 0.0036828155 -0.007614867 -0.0041959933 -0.0009869387 -0.0039841374 -0.008432688
preparedness 0.004545555 -0.0025481896 0.0058216043 0.0062086266 -0.0034476623 0.0055821715 0.0043951576 -0.0042545306 -0.0016534426 -0.0040191063 -0.007218926 0.005032382 -0.0006662591 0.0077606407 -0.008437615 -0.008399126 -0.0024944225 0.0036625562 0.0026815906 0.0046741334 0.0077062715 -0.0064632455 0.006078786 0.009032039 0.0037563452 -0.0074219317 -0.004648969 -0.0012610136 -0.00456231 -0.0070965495
standards 0.010237672 -0.0046823574 0.00842359 0.0051358133 -0.004745398 0.005899005 0.008609407 -0.010278528 -0.008405799 -0.0089384485 -0.008585004 0.00076191575 -0.010397857 0.010707377 -0.009855222 -0.010381174 -0.008822725 0.011951918 0.0070752995 0.010044824 0.009154749 -0.008636418 0.0068503595 0.008459498 -0.006221461 -0.008568084 -0.0060186377 -0.000768417 -0.0102013005 -0.011971912
could 0.011281767 -0.012852229 0.012655135 0.016762996 0.002937346 0.0052264035 0.0031555975 -0.013717042 -0.0062068533 -0.011020527 -0.01321352 0.013738339 -0.0063367547 0.0045825234 -0.017070929 -0.013482821 -0.00037405884 0.008882941 0.013110854 0.012914231 0.0140549205 -0.02025579 0.016207494 0.016760208 0.0067920266 -0.011029375 -0.0035510843 -0.004721781 -0.013990774 -0.015095925
save 0.011860427 -0.010395745 0.0069387257 0.01739466 0.008553057 0.0008345182 0.0021507014 -0.015712738 -0.0063882777 -0.012930443 -0.011094422 0.013686583 -0.011991238 -0.0010384254 -0.012778822 -0.01228608 -0.005547657 0.011081001 0.015100751 0.01647133 0.012761404 -0.016113117 0.01694676 0.01434721 -0.0016260154 -0.010913104 0.000320824 0.0018156116 -0.015430312 -0.013300177
thousands 0.008241775 -0.018337335 0.02414726 0.02521067 0.006702517 0.010180411 0.019000368 -0.018583389 -0.012618135 -0.02028202 -0.024046607 0.02135704 -0.009095405 0.0099632 -0.026344238 -0.0236926 -0.022539424 0.024301369 0.013696978 0.02555771 0.02123094 -0.025862122 0.02474158 0.014286487 -0.020128138 -0.017857796 -0.004262792 0.020418849 -0.027670361 -0.019124372
lives 0.021306587 -0.03039503 0.04340234 0.035074305 -0.014686277 0.026582658 0.035527483 -0.03350221 -0.030583614 -0.0370195 -0.036563598 0.021207152 -0.021169102 0.042920712 -0.046866447 -0.039214313 -0.040705997 0.04202218 0.043140654 0.04224218 0.041650925 -0.039995797 0.042239428 0.02682609 -0.03342804 -0.036995236 -0.0141758155 0.023607928 -0.03417161 -0.030664828
colorectal 0.01470048 -0.011457222 0.012831259 0.008393786 -0.006772249 0.0093397 0.012634818 -0.012498174 -0.011321016 -0.011044297 -0.01389273 0.008211329 -0.006261761 0.0118412 -0.008596739 -0.0070761647 -0.009438862 0.0067335274 0.010618183 0.014020314 0.010883328 -0.012460485 0.01638044 0.011761202 -0.006577053 -0.014624586 -0.0058736196 0.004639027 -0.009061033 -0.013305103
cancer 0.032642767 -0.037596926 0.04080188 0.024959896 -0.013006272 0.015497033 0.021811126 -0.0394242 -0.030084586 -0.028540963 -0.027497182 0.03599669 -0.01584451 0.028506195 -0.043981597 -0.027924323 -0.012564563 0.031234384 0.043365162 0.041360863 0.035588656 -0.03716983 0.0339027 0.008796367 -0.019302217 -0.03415357 -0.010353655 0.0062066615 -0.025088703 -0.027885698
this 0.05497241 -0.02211788 0.05044518 0.019965231 -0.022676414 0.024216931 0.034697905 -0.037866127 -0.011524143 -0.030209687 -0.032975443 0.029773548 -0.015412042 0.03657895 -0.04333766 -0.016748847 -0.013744729 0.031363774 0.019275716 0.04915901 0.029229017 -0.04240472 0.041986737 0.013012178 -0.0063721132 -0.042512238 -0.03212635 0.01350944 -0.04246071 -0.04219319
is 0.054126084 -0.0900245 0.07602745 0.08117141 0.04678446 0.054057706 0.05829416 -0.08222561 -0.09251763 -0.08971628 -0.08809868 0.01568149 -0.015510449 0.056543168 -0.066775545 -0.059575606 -0.0636188 0.06994831 0.04896583 0.07543357 0.07081238 -0.07851886 0.08334611 0.04562752 -0.067188166 -0.0848456 -0.0480251 0.06560617 -0.05909801 -0.07223964
often 0.019392284 -0.013147881 0.013011667 0.017811378 0.0006634108 0.0054705166 0.0026117642 -0.021756863 -0.009677915 -0.020959364 -0.017352626 0.0016133689 -0.008759884 0.008067941 -0.012428813 -0.015430988 -0.008251686 0.015394861 0.019931942 0.01832469 0.021559484 -0.019713866 0.02087636 0.008179538 0.004823239 -0.012813632 -0.0058381693 0.0022639867 -0.020342892 -0.019745398
affecting 0.008392927 -0.0058265887 0.0018636166 0.007246049 0.005249244 -0.0034929726 -0.0031685745 -0.0091741765 -0.00469633 -0.005341718 -0.007820411 0.0067547974 -0.005641076 -0.0043336544 -0.0065833735 -0.004688471 0.0028464156 0.0052339453 0.0085096015 0.008402917 0.0068201134 -0.00930324 0.007862331 0.007371784 0.004860393 -0.005086295 0.0015560584 -0.0042382795 -0.0069799116 -0.004105068
younger 0.009349638 -0.007246763 0.0058496147 0.0033391805 -0.0063731 0.0038728977 0.0064559653 -0.006283506 -0.005207773 -0.006427024 -0.005429364 0.0035558126 -0.0045233523 0.00876622 -0.0055980086 -0.005178153 -0.006233426 0.0047339713 0.008788413 0.005988961 0.0056540756 -0.005168913 0.006995487 0.0067380774 -0.0043613776 -0.0062242425 -0.003671366 0.0037029684 -0.006275419 -0.004641643
glance 0.03829227 -0.023621505 0.035056405 0.03170006 -0.0034909872 0.023082778 0.04877656 -0.033931248 -0.03519049 -0.038266923 -0.04464895 0.022944761 0.00044009747 0.03773765 -0.03352409 -0.03747675 -0.033999573 0.037690517 0.0453043 0.038633913 0.03502817 -0.042481944 0.034895442 0.024124483 -0.029431017 -0.025102485 -0.02483208 0.024169983 -0.03965676 -0.03227692
explore 0.06528524 -0.040718313 0.04807279 0.047781587 0.002545131 0.05041353 0.041746408 -0.05012874 -0.036637362 -0.059817955 -0.044092953 0.021624977 -0.010702945 0.051309384 -0.031275686 -0.046159755 -0.04182973 0.035699844 0.052309643 0.04781029 0.056068912 -0.037276905 0.06002414 0.03734659 -0.040547673 -0.05215494 -0.03795681 0.026446812 -0.045314 -0.045214877
bethesda 0.03675754 -0.07247185 0.109190024 0.028389225 0.016493693 0.13206908 0.11252208 -0.079941705 -0.05341161 -0.028013201 -0.100421704 0.10012355 -0.081674844 0.06568566 0.0697216 -0.06906383 -0.043821298 0.024510827 0.10148609 0.106703825 0.06235555 -0.05471182 0.15002738 0.114173345 -0.01746579 0.05678021 -0.027900076 0.04778978 -0.11256412 -0.055199232
campus 0.032608587 -0.03233036 0.048149195 0.023084298 -0.013054713 0.02919178 0.038825084 -0.03798197 -0.031979818 -0.039832998 -0.020424986 0.0256643 0.0006093333 0.045163404 -0.02229403 -0.031946115 -0.015955783 0.028278627 0.02743708 0.036839645 0.032507874 -0.025369389 0.04117894 0.025815899 -0.007733537 -0.022166364 -0.019503083 0.005271819 -0.036125004 -0.031411227
turns 0.03771309 -0.048239682 0.04562201 0.026592886 0.0077162744 0.030813107 0.030710574 -0.02750213 -0.019075245 -0.031219827 -0.035095643 -0.009306107 -0.03399466 0.034987446 -0.047243115 -0.030186618 -0.026211008 0.048008382 0.01731557 0.04243895 0.02900915 -0.037262816 0.031873323 0.027371751 -0.035197124 -0.045003664 -0.0069582 0.030658532 -0.03145688 -0.031291716
monica 0.020695975 -0.024827547 0.025803357 0.025563128 0.0033847834 0.022890707 0.025614223 -0.02663166 -0.032694146 -0.020075213 -0.022281315 0.0020803963 -0.006845464 0.027980527 -0.018921163 -0.02176537 -0.018380549 0.025910638 0.029097922 0.02801593 0.018069962 -0.018537732 0.029597707 0.012283458 -0.031119294 -0.030396588 -0.011753886 0.024205253 -0.022392878 -0.031694677
m. 0.017086584 -0.012532509 0.019112503 0.013203651 -0.009366563 0.009141304 0.011758193 -0.019694047 -0.014845451 -0.015954733 -0.01648553 0.015198621 0.0029349565 0.014546159 -0.013665452 -0.008502423 -0.012420446 0.011622219 0.012911144 0.012715823 0.008541027 -0.011987555 0.016311849 0.007782182 -0.013216041 -0.011054834 -0.010451204 0.018357849 -0.0136751775 -0.019899912
bertagnolli 0.015155649 -0.013416868 0.017959796 0.0129571 -0.010772719 0.011162109 0.016371021 -0.011398206 -0.015577756 -0.010508675 -0.014066238 0.008452923 -0.011986909 0.019824848 -0.012268117 -0.013004342 -0.011320717 0.012197019 0.019815631 0.00957024 0.0141474 -0.008064048 0.014443975 0.015254293 -0.0088904295 -0.0170742 -0.013283349 0.0083115725 -0.013701075 -0.00794231
m.d 0.016810142 -0.019504305 0.019873267 0.013264035 -0.011966812 0.009981981 0.018467437 -0.016024837 -0.019127823 -0.018241744 -0.012917982 0.008628368 -0.011871839 0.01993085 -0.016397348 -0.010077088 -0.011701492 0.014616795 0.02315788 0.0149384765 0.014139602 -0.012010186 0.015670102 0.014082316 -0.010490638 -0.017027007 -0.009930761 0.0077538816 -0.014456081 -0.014586198
provides 0.03841552 -0.020446688 0.029625691 0.027943665 -0.010685707 0.031354755 0.03309526 -0.04079406 -0.031304106 -0.03713995 -0.03660001 -0.012130204 -0.018273832 0.036488913 -0.04015408 -0.043987405 -0.032724198 0.043170653 0.042606663 0.045679666 0.02981252 -0.038770914 0.039119024 0.009324467 -0.026567172 -0.046090543 -0.029091435 0.013877473 -0.039208937 -0.04180373
leadership 0.024800455 -0.030130932 0.035254568 0.024152922 -0.0034411848 0.026479919 0.028079081 -0.023910774 -0.032781474 -0.03281661 -0.024390021 0.0039687827 -0.01409862 0.034417965 -0.030212319 -0.031307776 -0.025040936 0.02575609 0.025142608 0.03228623 0.030370582 -0.029809603 0.02389104 0.024425257 -0.023168178 -0.03652907 -0.023492036 0.008265186 -0.028661199 -0.033722065
27 0.03379716 -0.04511333 0.04185231 0.030281292 -0.0054801633 0.040579572 0.03507988 -0.044561427 -0.034013174 -0.03762095 -0.032955073 0.032081127 -0.017556394 0.033184323 -0.041160736 -0.027578436 -0.03658185 0.04619971 0.048406884 0.046846934 0.044540606 -0.03943528 0.041773364 0.027281165 -0.029240506 -0.041046534 -0.032818265 0.016079254 -0.046744242 -0.0498066
that 0.059681118 -0.06467568 0.057878453 0.07316655 -0.023655808 0.056383487 0.06408562 -0.05910164 -0.06936117 -0.08393 -0.06357856 0.049477287 0.014386453 0.08389191 -0.09111072 -0.07744266 -0.04759756 0.07671957 0.077299 0.07802211 0.07028092 -0.081587754 0.07534065 0.007958754 -0.027217641 -0.07656622 -0.018650949 0.009741895 -0.072500035 -0.077013776
make 0.03440984 -0.06068294 0.051276147 0.0403676 0.027268417 0.05319303 0.06174608 -0.050318737 -0.065507114 -0.060008537 -0.042734005 0.023672251 0.01465951 0.048621867 -0.048472364 -0.038849324 -0.04676801 0.06190893 0.056513652 0.052593175 0.053672925 -0.058990303 0.048091 0.04563207 -0.019398082 -0.05003109 -0.025387488 0.041022886 -0.047428053 -0.0505324
up 0.057512976 -0.07935902 0.080285475 0.09100387 0.02133299 0.0657997 0.061188053 -0.050982762 -0.06663168 -0.07183808 -0.08316861 0.005277556 -0.022859445 0.08172101 -0.051981445 -0.082568265 -0.05472893 0.080193065 0.08120409 0.08385333 0.07872439 -0.056221165 0.08161805 0.06595896 -0.05321213 -0.09466337 -0.036936026 0.052575536 -0.0710008 -0.07350764
largest 0.025690015 -0.032105725 0.032028496 0.02586299 0.014668722 0.015516018 0.03319357 -0.022304974 -0.026710462 -0.022781042 -0.023033451 0.017352395 -0.0059508584 0.026090685 -0.03128312 -0.026208492 -0.021446979 0.022825133 0.023714915 0.030053305 0.02578131 -0.026014043 0.027949857 0.026966179 -0.02317576 -0.018338865 -0.012794247 0.028959436 -0.020425763 -0.029927587
source 0.012681949 -0.013411785 0.024261191 0.020436564 0.0007256663 0.007844728 0.015002168 -0.015192879 -0.012347469 -0.013392568 -0.015647119 0.02062306 -0.0044148457 0.013411239 -0.020248542 -0.008636219 -0.016711852 0.013071003 0.011621928 0.014877871 0.014171391 -0.016092956 0.02036708 0.007893944 -0.014076125 -0.016826244 -0.014389431 0.016827494 -0.02180775 -0.019967046
world 0.04690012 -0.024832323 0.042059466 0.02118024 0.001422796 0.022916067 0.037684895 -0.037219446 -0.027825208 -0.034862418 -0.024754955 0.010754846 -0.018363591 0.035981845 -0.03719453 -0.025831884 -0.030068224 0.030612886 0.033659503 0.03213029 0.028087035 -0.026729627 0.023532433 0.037891354 -0.025223901 -0.02859008 -0.02548332 0.023897603 -0.032815676 -0.029503739
creating 0.007792763 -0.0159063 0.01657319 0.011750567 0.006134342 0.009605858 0.012380431 -0.010995587 -0.012542945 -0.015473314 -0.013074521 0.012496044 0.0005054898 0.009919731 -0.015606665 -0.012922533 -0.014056294 0.011859794 0.010907486 0.012237162 0.010917514 -0.016253171 0.015160263 0.016497165 -0.012653929 -0.0119183175 -0.007047026 0.013451745 -0.015207987 -0.012407233
hundreds 0.002748886 -0.007444088 0.010790673 0.011454123 0.0023367105 0.0069907936 0.006712213 -0.008714707 -0.008956513 -0.005655321 -0.008223602 0.008373078 -0.0042483006 0.0036689544 -0.011458679 -0.0068494678 -0.0075361803 0.008278724 0.005965913 0.010322502 0.008230825 -0.007122527 0.0102305515 0.008370515 -0.0074673076 -0.007921976 -0.0020989692 0.008863466 -0.010748889 -0.004926876
high 0.007245642 -0.010281838 0.012721123 0.0111473845 0.00041388485 0.0071142437 0.011511474 -0.011892537 -0.010914401 -0.012439223 -0.014824244 0.005638339 -0.0058836197 0.010369018 -0.010796573 -0.008960083 -0.012259991 0.010643129 0.010203396 0.012390631 0.009837782 -0.011421915 0.014000831 0.00960546 -0.011741187 -0.011579365 -0.0046351943 0.009222449 -0.013129619 -0.010167439
quality 0.013679546 -0.012110924 0.01725439 0.009668693 -0.005072689 0.010606494 0.013053681 -0.016268756 -0.013134435 -0.016047297 -0.01617266 0.007733388 -0.013650587 0.0158167 -0.015752012 -0.014425313 -0.020059938 0.019355586 0.01652173 0.018735496 0.012914376 -0.011727232 0.019569667 0.010933284 -0.013854128 -0.016797028 -0.011430763 0.01317117 -0.014869593 -0.015172314
conduct 0.020444447 -0.0143634705 0.018493947 0.015599757 0.0028576606 0.016439712 0.011294971 -0.021230051 -0.014698165 -0.016169067 -0.021005262 -0.010818078 -0.004944154 0.021259548 -0.014947774 -0.014152605 -0.012448298 0.014297527 0.018645553 0.023243457 0.020433368 -0.016416624 0.021625623 0.0048793578 -0.007852794 -0.016670067 -0.011706766 0.011758453 -0.01663039 -0.017421693
